int num_layers = 3;

int layer_size[] = {65, 33, 65};

float activation[] = {3,5.00000000000000000000e-01,
3,5.00000000000000000000e-01,
3,5.00000000000000000000e-01,
3,5.00000000000000000000e-01,
3,5.00000000000000000000e-01,
3,5.00000000000000000000e-01,
3,5.00000000000000000000e-01,
3,5.00000000000000000000e-01,
3,5.00000000000000000000e-01,
3,5.00000000000000000000e-01,
3,5.00000000000000000000e-01,
3,5.00000000000000000000e-01,
3,5.00000000000000000000e-01,
3,5.00000000000000000000e-01,
3,5.00000000000000000000e-01,
3,5.00000000000000000000e-01,
3,5.00000000000000000000e-01,
3,5.00000000000000000000e-01,
3,5.00000000000000000000e-01,
3,5.00000000000000000000e-01,
3,5.00000000000000000000e-01,
3,5.00000000000000000000e-01,
3,5.00000000000000000000e-01,
3,5.00000000000000000000e-01,
3,5.00000000000000000000e-01,
3,5.00000000000000000000e-01,
3,5.00000000000000000000e-01,
3,5.00000000000000000000e-01,
3,5.00000000000000000000e-01,
3,5.00000000000000000000e-01,
3,5.00000000000000000000e-01,
3,5.00000000000000000000e-01,
5,5.00000000000000000000e-01,
5,5.00000000000000000000e-01,
5,5.00000000000000000000e-01,
5,5.00000000000000000000e-01,
5,5.00000000000000000000e-01,
5,5.00000000000000000000e-01,
5,5.00000000000000000000e-01,
5,5.00000000000000000000e-01,
5,5.00000000000000000000e-01,
5,5.00000000000000000000e-01,
5,5.00000000000000000000e-01,
5,5.00000000000000000000e-01,
5,5.00000000000000000000e-01,
5,5.00000000000000000000e-01,
5,5.00000000000000000000e-01,
5,5.00000000000000000000e-01,
5,5.00000000000000000000e-01,
5,5.00000000000000000000e-01,
5,5.00000000000000000000e-01,
5,5.00000000000000000000e-01,
5,5.00000000000000000000e-01,
5,5.00000000000000000000e-01,
5,5.00000000000000000000e-01,
5,5.00000000000000000000e-01,
5,5.00000000000000000000e-01,
5,5.00000000000000000000e-01,
5,5.00000000000000000000e-01,
5,5.00000000000000000000e-01,
5,5.00000000000000000000e-01,
5,5.00000000000000000000e-01,
5,5.00000000000000000000e-01,
5,5.00000000000000000000e-01,
5,5.00000000000000000000e-01,
5,5.00000000000000000000e-01,
5,5.00000000000000000000e-01,
5,5.00000000000000000000e-01,
5,5.00000000000000000000e-01,
5,5.00000000000000000000e-01,
5,5.00000000000000000000e-01,
5,5.00000000000000000000e-01,
5,5.00000000000000000000e-01,
5,5.00000000000000000000e-01,
5,5.00000000000000000000e-01,
5,5.00000000000000000000e-01,
5,5.00000000000000000000e-01,
5,5.00000000000000000000e-01,
5,5.00000000000000000000e-01,
5,5.00000000000000000000e-01,
5,5.00000000000000000000e-01,
5,5.00000000000000000000e-01,
5,5.00000000000000000000e-01,
5,5.00000000000000000000e-01,
5,5.00000000000000000000e-01,
5,5.00000000000000000000e-01,
5,5.00000000000000000000e-01,
5,5.00000000000000000000e-01,
5,5.00000000000000000000e-01,
5,5.00000000000000000000e-01,
5,5.00000000000000000000e-01,
5,5.00000000000000000000e-01,
5,5.00000000000000000000e-01,
5,5.00000000000000000000e-01,
5,5.00000000000000000000e-01,
5,5.00000000000000000000e-01,
};

float weights[] = {2.05860987305641174316e-01,
2.40017339587211608887e-01,
1.72765612602233886719e-01,
2.77248352766036987305e-01,
1.58097773790359497070e-01,
-2.25954249501228332520e-01,
-3.17382335662841796875e-01,
-2.38003849983215332031e-01,
1.92981511354446411133e-01,
2.41877809166908264160e-01,
1.03591233491897583008e-01,
2.28587463498115539551e-01,
1.53886824846267700195e-01,
-2.98504829406738281250e-01,
-2.59483814239501953125e-01,
-3.14557731151580810547e-01,
2.80989795923233032227e-01,
2.74236768484115600586e-01,
1.20738908648490905762e-01,
1.90613627433776855469e-01,
1.66673332452774047852e-01,
-8.84161293506622314453e-02,
-9.44105535745620727539e-02,
-9.95699316263198852539e-02,
3.24877142906188964844e-01,
2.13607564568519592285e-01,
3.02773833274841308594e-01,
-4.66334447264671325684e-02,
-4.84942235052585601807e-02,
-9.85810533165931701660e-02,
-1.85323618352413177490e-02,
-2.86291372030973434448e-02,
1.76700130105018615723e-01,
2.10672631859779357910e-01,
2.26107817143201828003e-02,
-9.34828892350196838379e-02,
-5.63301742076873779297e-02,
-1.60851374268531799316e-01,
-2.27790355682373046875e-01,
-8.73092412948608398438e-02,
9.47794038802385330200e-03,
-9.72915887832641601562e-02,
-7.25376466289162635803e-03,
-7.21295177936553955078e-02,
-5.94486594200134277344e-02,
-1.54634729027748107910e-01,
-1.34325429797172546387e-01,
-8.97755697369575500488e-02,
9.00605693459510803223e-02,
-3.01979705691337585449e-02,
-9.65903550386428833008e-02,
-3.49589288234710693359e-02,
-1.70951142907142639160e-01,
-7.41480588912963867188e-02,
-1.78073093295097351074e-01,
-8.91145542263984680176e-02,
1.20662249624729156494e-01,
-4.10447409376502037048e-03,
2.13766917586326599121e-01,
-1.41282677650451660156e-01,
-4.49726283550262451172e-02,
-8.74634385108947753906e-02,
-2.03932896256446838379e-01,
-1.07108704745769500732e-01,
-2.47906947135925292969e+00,
1.03045254945755004883e-01,
4.96496528387069702148e-01,
1.37550592422485351562e+00,
1.37575149536132812500e+00,
1.44594120979309082031e+00,
1.23613011837005615234e+00,
9.57548618316650390625e-01,
4.94591087102890014648e-01,
-2.28826448321342468262e-01,
-1.70173093676567077637e-01,
-3.08820847421884536743e-02,
4.61067140102386474609e-01,
6.54295742511749267578e-01,
1.35414636135101318359e+00,
9.69406008720397949219e-01,
4.56781923770904541016e-01,
-2.25874379277229309082e-01,
-1.13431863486766815186e-01,
-1.67299523949623107910e-01,
2.76457006111741065979e-03,
3.57847571372985839844e-01,
2.15681821107864379883e-01,
1.04613411426544189453e+00,
2.04470038414001464844e-01,
-4.02834475040435791016e-01,
-3.82166177034378051758e-01,
-1.03083245456218719482e-01,
-1.49649590253829956055e-01,
1.44202321767807006836e-01,
2.48328223824501037598e-01,
-9.25874859094619750977e-02,
-2.15072900056838989258e-01,
-4.53407734632492065430e-01,
-2.71418601274490356445e-01,
-3.65018129348754882812e-01,
-1.03103153407573699951e-01,
-1.84103678911924362183e-02,
-1.67120084166526794434e-01,
-1.72155842185020446777e-01,
-1.77464532852172851562e+00,
-5.21998465061187744141e-01,
-1.65751203894615173340e-01,
-3.08772414922714233398e-01,
-2.16201037168502807617e-01,
-1.74695983529090881348e-01,
-2.20671221613883972168e-01,
-4.03446197509765625000e-01,
-9.62020754814147949219e-01,
-1.73392295837402343750e-01,
3.23359549045562744141e-01,
2.98019021749496459961e-01,
-1.75438582897186279297e-01,
-1.44185155630111694336e-01,
-1.97593897581100463867e-01,
-6.29842579364776611328e-01,
-8.61270070075988769531e-01,
8.78013372421264648438e-01,
2.09517526626586914062e+00,
2.09602642059326171875e+00,
-5.39103224873542785645e-02,
-1.41544342041015625000e-01,
-1.56190946698188781738e-01,
-4.01828348636627197266e-01,
-5.27858376502990722656e-01,
-7.64215040206909179688e+00,
7.93336927890777587891e-02,
2.12407946586608886719e-01,
1.15690886974334716797e-01,
8.08469057083129882812e-02,
1.87040209770202636719e-01,
1.01892113685607910156e-01,
9.00583267211914062500e-02,
1.71496331691741943359e-01,
1.42945572733879089355e-01,
2.09532797336578369141e-01,
1.49885892868041992188e-01,
1.71747922897338867188e-01,
1.46658182144165039062e-01,
1.50650143623352050781e-01,
1.29755139350891113281e-01,
1.25941380858421325684e-01,
1.04823201894760131836e-01,
2.48723030090332031250e-01,
1.26958847045898437500e-01,
6.66125118732452392578e-02,
1.49896949529647827148e-01,
7.75335282087326049805e-02,
2.65487462282180786133e-01,
1.21749229729175567627e-01,
2.32755616307258605957e-01,
2.49101907014846801758e-01,
1.09328702092170715332e-01,
2.25900560617446899414e-01,
2.68679112195968627930e-01,
1.91825002431869506836e-01,
1.07848167419433593750e-01,
1.00906938314437866211e-01,
1.52616813778877258301e-01,
1.71303302049636840820e-01,
1.24019086360931396484e-01,
8.66627320647239685059e-02,
2.20820933580398559570e-01,
1.62529498338699340820e-01,
2.11582198739051818848e-01,
1.16959050297737121582e-01,
1.20834596455097198486e-01,
1.04352019727230072021e-01,
2.31590986251831054688e-01,
2.14728891849517822266e-01,
2.03155696392059326172e-01,
1.14470534026622772217e-01,
1.25782087445259094238e-01,
2.60872989892959594727e-01,
1.07293486595153808594e-01,
1.63936138153076171875e-01,
7.61670246720314025879e-02,
1.91686019301414489746e-01,
2.08869785070419311523e-01,
3.03555577993392944336e-01,
2.75864213705062866211e-01,
-4.40281033515930175781e-01,
2.64380961656570434570e-01,
1.01359300315380096436e-01,
1.45890861749649047852e-01,
2.99932092428207397461e-01,
2.55613356828689575195e-01,
1.84181004762649536133e-01,
1.21200434863567352295e-01,
1.01344756782054901123e-01,
-4.98904991149902343750e+00,
-2.70202476531267166138e-03,
-3.00338268280029296875e-02,
5.07933124899864196777e-02,
8.63176733255386352539e-02,
1.05174660682678222656e-01,
9.43376347422599792480e-02,
-6.06516674160957336426e-02,
-5.77209852635860443115e-02,
6.07892237603664398193e-02,
8.76191928982734680176e-02,
7.70002380013465881348e-02,
9.76512730121612548828e-02,
1.04732826352119445801e-01,
6.44162818789482116699e-02,
-6.41178563237190246582e-02,
-6.27590343356132507324e-04,
7.19113647937774658203e-02,
5.72681762278079986572e-02,
1.06863856315612792969e-01,
6.51850476861000061035e-02,
2.45624743402004241943e-02,
2.82142162322998046875e-01,
4.27817255258560180664e-02,
3.47665622830390930176e-02,
1.90187282860279083252e-02,
4.28521484136581420898e-02,
-8.61427746713161468506e-03,
9.64106246829032897949e-02,
6.38586282730102539062e-02,
3.15461397171020507812e-01,
7.23308473825454711914e-02,
-6.46479725837707519531e-02,
7.50821605324745178223e-02,
8.92498064786195755005e-03,
-9.01720151305198669434e-02,
6.36301115155220031738e-02,
-1.40306716784834861755e-02,
-7.00433179736137390137e-02,
8.69666114449501037598e-02,
-7.64904096722602844238e-02,
9.71328988671302795410e-02,
4.44823689758777618408e-02,
1.01597078144550323486e-01,
8.48557949066162109375e-02,
-7.53496540710330009460e-03,
-7.76061937212944030762e-02,
-3.09359133243560791016e-02,
-5.77978752553462982178e-02,
5.65751828253269195557e-02,
-5.04663810133934020996e-02,
8.27927961945533752441e-02,
-3.80213521420955657959e-02,
2.29150597006082534790e-02,
2.90321875363588333130e-02,
1.07325270771980285645e-01,
-5.22485710680484771729e-02,
-3.69961336255073547363e-02,
-2.12553273886442184448e-02,
-8.10252800583839416504e-02,
-8.15586149692535400391e-02,
9.69074219465255737305e-02,
9.27856042981147766113e-02,
-3.32798846065998077393e-02,
1.48563697934150695801e-01,
-2.62123155593872070312e+00,
8.24701972305774688721e-04,
9.09562781453132629395e-02,
1.76958367228507995605e-01,
-1.37572586536407470703e-02,
3.08890998363494873047e-01,
3.47410708665847778320e-01,
-7.70856216549873352051e-02,
-1.08635418117046356201e-01,
3.41361388564109802246e-02,
-7.11898431181907653809e-02,
1.26552609726786613464e-02,
9.02479439973831176758e-02,
-3.12992595136165618896e-02,
2.77917653322219848633e-01,
-3.22131812572479248047e-02,
-6.37110322713851928711e-02,
-9.20067261904478073120e-03,
6.38539791107177734375e-02,
-2.01976001262664794922e-02,
-1.61953940987586975098e-02,
4.49962913990020751953e-01,
4.29664760828018188477e-01,
2.40340352058410644531e-01,
-9.09903645515441894531e-02,
-4.26778681576251983643e-02,
7.37405428662896156311e-03,
-5.36775477230548858643e-02,
1.00448749959468841553e-01,
6.59671902656555175781e-01,
5.05020976066589355469e-01,
1.48314367979764938354e-02,
-1.50078922510147094727e-01,
-9.67482849955558776855e-02,
-1.07737295329570770264e-02,
-3.80854494869709014893e-02,
2.16244310140609741211e-01,
1.79873108863830566406e+00,
3.07903319597244262695e-01,
-6.58613666892051696777e-02,
-5.15596121549606323242e-02,
-7.45637640357017517090e-02,
-8.51113498210906982422e-02,
-8.24325680732727050781e-02,
-1.00695729255676269531e-01,
-5.32179251313209533691e-02,
-1.45888537168502807617e-01,
-1.58481508493423461914e-01,
-1.33413404226303100586e-01,
-3.73814076185226440430e-01,
-3.22624981403350830078e-01,
-3.05991649627685546875e-01,
-2.87762463092803955078e-01,
-7.01262503862380981445e-02,
-3.51704433560371398926e-02,
-1.59739062190055847168e-01,
-1.77955731749534606934e-01,
-1.54147851467132568359e+00,
-5.37941753864288330078e-01,
-5.25186777114868164062e-01,
-6.00686490535736083984e-01,
-4.05598819255828857422e-01,
-4.32949066162109375000e-01,
-3.36052864789962768555e-01,
-3.68598967790603637695e-01,
-6.13955354690551757812e+00,
3.35599112510681152344e+00,
2.71631264686584472656e+00,
3.77256107330322265625e+00,
7.44592952728271484375e+00,
7.45462799072265625000e+00,
1.25016155242919921875e+01,
1.20005381107330322266e+00,
1.34670317173004150391e+00,
3.63390564918518066406e-01,
8.94127786159515380859e-01,
9.32311773300170898438e-01,
8.35631251335144042969e-01,
8.43558251857757568359e-01,
5.35183250904083251953e-01,
4.83879953622817993164e-01,
3.50192159414291381836e-01,
-2.77288842201232910156e+00,
-4.00496572256088256836e-01,
-1.58627465367317199707e-01,
-6.06639683246612548828e-01,
-1.39016830921173095703e+00,
-1.97141841053962707520e-01,
-1.10224291682243347168e-01,
-1.62634253501892089844e-01,
-1.25501596927642822266e+00,
-2.45844721794128417969e+00,
-1.15094165802001953125e+01,
-2.25522518157958984375e+00,
-5.79692506790161132812e+00,
-3.06737174987792968750e+01,
-5.02246809005737304688e+00,
-3.86654734611511230469e+00,
3.93262833356857299805e-01,
3.10891360044479370117e-01,
9.29356440901756286621e-02,
-9.01947081089019775391e-01,
-8.72907996177673339844e-01,
-1.26609921455383300781e+00,
-2.18535375595092773438e+00,
-2.16597056388854980469e+00,
2.39078569412231445312e+00,
1.59789681434631347656e+00,
1.64935469627380371094e+00,
-4.50333297252655029297e-01,
-7.81634211540222167969e-01,
-8.84443521499633789062e-01,
-1.04136717319488525391e+00,
-1.06302380561828613281e+00,
3.24221849441528320312e+00,
3.33836507797241210938e+00,
1.48720455169677734375e+00,
-3.45234692096710205078e-01,
-3.96367937326431274414e-01,
5.30985295772552490234e-02,
8.79168033599853515625e-01,
-7.74774193763732910156e-01,
-9.94089171290397644043e-02,
-2.61164814233779907227e-01,
-3.40537697076797485352e-01,
-5.34006297588348388672e-01,
-2.27388516068458557129e-01,
9.22635912895202636719e-01,
6.01193714141845703125e+00,
4.95019435882568359375e-01,
-1.28325681686401367188e+01,
-1.72520175576210021973e-01,
-1.39763906598091125488e-01,
-1.43306136131286621094e-01,
-2.63705849647521972656e-01,
-1.09418176114559173584e-01,
-8.99753928184509277344e-01,
-7.11204290390014648438e-01,
-7.98691511154174804688e-01,
-1.41970396041870117188e-01,
-2.07604728639125823975e-02,
-2.34086379408836364746e-01,
-8.24570208787918090820e-02,
-2.55246549844741821289e-01,
-1.33287981152534484863e-01,
-7.11888074874877929688e-01,
-5.75926363468170166016e-01,
-3.16702723503112792969e-02,
5.92273026704788208008e-02,
3.36359404027462005615e-02,
-1.06379734352231025696e-02,
-2.00203642249107360840e-01,
-1.17658242583274841309e-01,
-5.86169324815273284912e-02,
-3.73368144035339355469e-01,
6.21619820594787597656e-01,
1.07751242816448211670e-01,
3.04468218237161636353e-02,
8.16053450107574462891e-02,
1.90149005502462387085e-02,
3.01363877952098846436e-02,
1.64146453607827425003e-03,
1.04848686605691909790e-02,
5.89668512344360351562e-01,
2.83818721771240234375e-01,
3.76850128173828125000e-01,
1.27796260640025138855e-02,
2.89628822356462478638e-02,
4.66983541846275329590e-02,
-8.91770198941230773926e-02,
3.04137282073497772217e-02,
3.40908795595169067383e-01,
1.33627012372016906738e-01,
1.14746056497097015381e-01,
3.42648439109325408936e-02,
1.42032057046890258789e-01,
1.82453110814094543457e-01,
4.40036840736865997314e-02,
-9.79738980531692504883e-02,
1.54468268156051635742e-01,
-4.02707047760486602783e-03,
5.95606397837400436401e-03,
1.50480255484580993652e-01,
7.08460882306098937988e-02,
1.33357748389244079590e-01,
7.20199383795261383057e-03,
-4.38419461250305175781e-01,
-9.94946420192718505859e-01,
-3.59431803226470947266e-01,
1.26648575067520141602e-01,
1.15914762020111083984e-01,
-3.17650963552296161652e-03,
4.86200489103794097900e-02,
7.69130885601043701172e-03,
-1.43408412113785743713e-02,
-5.24374008178710937500e+00,
8.31180393695831298828e-01,
-1.44793437793850898743e-02,
-4.24079447984695434570e-02,
2.13206820189952850342e-02,
-4.21193474903702735901e-03,
9.10614654421806335449e-02,
9.26282033324241638184e-02,
7.73317068815231323242e-02,
-2.82124262303113937378e-02,
9.45170000195503234863e-02,
-3.67107652127742767334e-02,
-5.61431795358657836914e-02,
1.26707762479782104492e-01,
-1.45219499245285987854e-02,
1.01524263620376586914e-01,
-6.03846460580825805664e-02,
5.40993176400661468506e-03,
4.78916391730308532715e-02,
-2.40463158115744590759e-03,
-6.99393525719642639160e-02,
6.06196373701095581055e-02,
-7.96811208128929138184e-02,
-7.00743421912193298340e-02,
-2.02922914177179336548e-02,
4.64540906250476837158e-02,
-1.97677984833717346191e-02,
-2.72685922682285308838e-02,
-6.61984905600547790527e-02,
6.12274110317230224609e-02,
1.12702939659357070923e-02,
5.59996105730533599854e-02,
5.48072047531604766846e-02,
-1.97315914556384086609e-03,
-1.94538116455078125000e-01,
-9.38605815172195434570e-02,
9.98276844620704650879e-02,
8.85737594217061996460e-03,
5.83059266209602355957e-02,
-1.52715761214494705200e-02,
3.47975082695484161377e-02,
-2.68887691199779510498e-02,
-9.36550945043563842773e-02,
-1.39563791453838348389e-02,
2.62941815890371799469e-03,
7.91158154606819152832e-02,
2.87162624299526214600e-02,
2.20894943922758102417e-02,
-5.19714243710041046143e-02,
-4.24947924911975860596e-02,
-7.61373862624168395996e-02,
-6.44424185156822204590e-03,
-5.93308247625827789307e-02,
-6.04158826172351837158e-03,
4.84692007303237915039e-02,
1.57400108873844146729e-02,
-6.89427256584167480469e-02,
-3.71692888438701629639e-03,
8.23255851864814758301e-02,
-1.28772249445319175720e-03,
1.31075486540794372559e-01,
3.59039396047592163086e-01,
4.74511772394180297852e-01,
8.99368375539779663086e-02,
1.24610960483551025391e-01,
-4.80137205123901367188e+00,
-1.60214990377426147461e-01,
-1.13733090460300445557e-01,
-7.31709226965904235840e-02,
-2.32960686087608337402e-01,
-2.15304881334304809570e-01,
-1.30791604518890380859e-01,
-1.95794194936752319336e-01,
-2.08816483616828918457e-01,
-2.70718246698379516602e-01,
-9.41806510090827941895e-02,
-2.49238744378089904785e-01,
-1.73266395926475524902e-01,
-2.01637357473373413086e-01,
7.26112425327301025391e-02,
-1.35842591524124145508e-01,
-2.63916671276092529297e-01,
-1.55101343989372253418e-01,
-1.36945515871047973633e-01,
-1.46366566419601440430e-01,
-2.59415030479431152344e-01,
2.33577843755483627319e-02,
1.48183643817901611328e-01,
-2.55999833345413208008e-01,
-1.29660800099372863770e-01,
-1.18486128747463226318e-01,
-3.02130401134490966797e-01,
-2.95522838830947875977e-01,
-1.55921950936317443848e-01,
7.50377178192138671875e-02,
1.49174720048904418945e-01,
-2.60286748409271240234e-01,
-1.28785029053688049316e-01,
-1.79461374878883361816e-01,
-2.54789888858795166016e-01,
-8.15426707267761230469e-02,
-1.74365222454071044922e-01,
-1.75586476922035217285e-01,
-1.76669850945472717285e-01,
-2.85219907760620117188e-01,
-1.54883518815040588379e-01,
-1.74481436610221862793e-01,
-2.09889888763427734375e-01,
-1.16903141140937805176e-01,
-4.88671101629734039307e-02,
-1.03395991027355194092e-01,
-2.17775985598564147949e-01,
-1.71160504221916198730e-01,
-1.90170601010322570801e-01,
-9.09848064184188842773e-02,
-1.49493023753166198730e-01,
-8.81775766611099243164e-02,
-1.61280840635299682617e-01,
-2.07128584384918212891e-01,
-7.69648775458335876465e-02,
-5.48747219145298004150e-02,
-2.52428978681564331055e-01,
-1.06229290366172790527e-01,
-7.72644057869911193848e-02,
-1.07935018837451934814e-01,
-1.94307088851928710938e-01,
-8.51757749915122985840e-02,
-2.90369987487792968750e-03,
-1.70198529958724975586e-01,
-1.55638307332992553711e-01,
-1.82722604274749755859e+00,
5.76153546571731567383e-02,
9.63353067636489868164e-02,
1.90494164824485778809e-01,
1.91753208637237548828e-01,
5.19048631191253662109e-01,
4.19205337762832641602e-01,
8.35020542144775390625e-02,
7.21699222922325134277e-02,
1.27226397395133972168e-01,
2.29216311126947402954e-02,
1.30623474717140197754e-01,
1.43714323639869689941e-01,
1.31699472665786743164e-01,
3.72159987688064575195e-01,
1.52098402380943298340e-01,
-6.24389946460723876953e-02,
1.83890342712402343750e-01,
1.58140495419502258301e-01,
2.97519322484731674194e-02,
9.43699404597282409668e-02,
4.89713042974472045898e-01,
3.40755850076675415039e-01,
2.71222114562988281250e-01,
2.66503114253282546997e-02,
5.39807677268981933594e-01,
1.15720212459564208984e-01,
6.47657364606857299805e-02,
1.61563441157341003418e-01,
4.35619890689849853516e-01,
3.47255229949951171875e-01,
-8.58989059925079345703e-02,
3.59781682491302490234e-02,
-1.33071511983871459961e-01,
-1.45166262984275817871e-01,
-1.79150044918060302734e-01,
-2.51002103090286254883e-01,
-2.99484908580780029297e-01,
-1.53629586100578308105e-01,
-1.23125784099102020264e-01,
-2.45303988456726074219e-01,
-2.72428929805755615234e-01,
-2.32130780816078186035e-01,
-1.45141184329986572266e-01,
-1.89198896288871765137e-01,
-2.81677186489105224609e-01,
-3.16519647836685180664e-01,
-2.39666819572448730469e-01,
-2.84778594970703125000e-01,
-1.66173756122589111328e-01,
-2.31358736753463745117e-01,
-1.19962006807327270508e-01,
-2.81275421380996704102e-01,
-5.49109160900115966797e-01,
-5.96359312534332275391e-01,
-4.98727470636367797852e-01,
-5.89110195636749267578e-01,
6.18347585201263427734e-01,
4.40480679273605346680e-01,
1.54389083385467529297e+00,
7.83871471881866455078e-01,
-1.99085801839828491211e-01,
-4.41337019205093383789e-01,
-4.80666905641555786133e-01,
-4.89481568336486816406e-01,
-7.17084217071533203125e+00,
-2.64279693365097045898e-01,
-2.69151121377944946289e-01,
-2.36853659152984619141e-01,
-2.90306538343429565430e-01,
-1.49601891636848449707e-01,
-2.37045004963874816895e-01,
-3.15536767244338989258e-01,
-2.93641120195388793945e-01,
-6.20690397918224334717e-02,
-7.74496495723724365234e-02,
3.49011868238449096680e-02,
3.89064513146877288818e-02,
1.00493341684341430664e-01,
7.94417038559913635254e-02,
-1.14931970834732055664e-01,
-3.64210277795791625977e-01,
-3.25795747339725494385e-02,
8.51790681481361389160e-02,
-6.25617578625679016113e-02,
1.06619345024228096008e-02,
8.10289848595857620239e-03,
-2.21395287662744522095e-02,
-8.57490953058004379272e-03,
7.79453068971633911133e-02,
1.58850606530904769897e-02,
-9.56107676029205322266e-02,
7.52568691968917846680e-02,
2.46067922562360763550e-02,
-3.11763212084770202637e-02,
-3.48222367465496063232e-02,
-2.33801472932100296021e-02,
3.24430614709854125977e-02,
4.88708242774009704590e-02,
-4.42735217511653900146e-02,
1.01025596261024475098e-01,
3.40481251478195190430e-02,
4.71353530883789062500e-02,
-6.08159229159355163574e-02,
6.74909725785255432129e-02,
8.27290490269660949707e-02,
-5.72182536125183105469e-02,
1.56126152724027633667e-02,
4.19795326888561248779e-02,
7.05739334225654602051e-02,
9.75357443094253540039e-02,
5.45944795012474060059e-02,
-1.23409768566489219666e-02,
1.06679745018482208252e-01,
2.60832924395799636841e-02,
1.90347395837306976318e-02,
1.22175522148609161377e-01,
7.85115435719490051270e-02,
2.20395296812057495117e-01,
2.86748528480529785156e-01,
2.45373904705047607422e-01,
1.31777301430702209473e-01,
2.02628061175346374512e-01,
1.81922942399978637695e-01,
2.01661020517349243164e-01,
3.59582722187042236328e-01,
2.93124049901962280273e-01,
2.83894181251525878906e-01,
2.01619938015937805176e-01,
1.65385097265243530273e-01,
-2.67173600196838378906e+00,
6.25345781445503234863e-02,
1.61084994673728942871e-01,
5.22203445434570312500e-01,
7.33662322163581848145e-02,
1.12337850034236907959e-01,
5.14543890953063964844e-01,
5.02081573009490966797e-01,
6.87373876571655273438e-01,
1.86157882213592529297e-01,
1.60338938236236572266e-01,
2.26866364479064941406e-01,
1.73362463712692260742e-01,
1.38090983033180236816e-01,
1.57319054007530212402e-01,
2.27129049599170684814e-02,
2.85054236650466918945e-01,
-6.22678041458129882812e-01,
-1.97641298174858093262e-01,
1.27640008926391601562e-01,
2.26178113371133804321e-02,
4.56594079732894897461e-02,
-5.82240857183933258057e-02,
-1.68420910835266113281e-01,
2.12728288024663925171e-02,
-3.85796427726745605469e+00,
-3.01192134618759155273e-01,
-1.21775880455970764160e-01,
-8.67412537336349487305e-02,
7.69462883472442626953e-02,
-1.06017395853996276855e-01,
-2.03006789088249206543e-01,
-3.03921985626220703125e+00,
-5.80604743957519531250e+00,
-3.88724982738494873047e-01,
6.52054697275161743164e-02,
-1.19835637509822845459e-01,
-9.64702144265174865723e-02,
-3.74305099248886108398e-01,
1.57063442748039960861e-03,
-1.36685982346534729004e-01,
-3.32872986793518066406e+00,
-4.08796817064285278320e-02,
2.46424227952957153320e-02,
-9.41224396228790283203e-02,
3.59620489180088043213e-02,
-9.45838615298271179199e-02,
9.46518871933221817017e-03,
-4.65305820107460021973e-02,
-3.87952297925949096680e-01,
1.64926731586456298828e+00,
8.37306380271911621094e-01,
5.76766312122344970703e-01,
3.45657944679260253906e-01,
2.25974678993225097656e-01,
-2.22805347293615341187e-02,
-4.58075851202011108398e-01,
6.72796428203582763672e-01,
2.91959190368652343750e+00,
3.35884165763854980469e+00,
1.51292645931243896484e+00,
1.49595892429351806641e+00,
7.08388388156890869141e-01,
1.05192035436630249023e-01,
1.48914590477943420410e-01,
-8.96269989013671875000e+00,
9.78081047534942626953e-01,
8.09217572212219238281e-01,
1.85079944133758544922e+00,
1.74088060855865478516e+00,
7.30199098587036132812e-01,
4.22403603792190551758e-01,
4.60810333490371704102e-01,
2.77287721633911132812e-01,
1.46294724941253662109e+00,
9.16916251182556152344e-01,
1.82879304885864257812e+00,
1.19833624362945556641e+00,
4.84071910381317138672e-01,
3.83440434932708740234e-01,
3.34978908300399780273e-01,
1.56999677419662475586e-01,
1.05465030670166015625e+00,
4.55894351005554199219e-01,
3.93642902374267578125e-01,
4.58593308925628662109e-01,
6.65829181671142578125e-02,
-4.65959589928388595581e-03,
1.57826095819473266602e-01,
2.09197595715522766113e-01,
-1.42370784282684326172e+00,
-6.56513631343841552734e-01,
-4.68017578125000000000e-01,
-5.51656055450439453125e+00,
-5.49532461166381835938e+00,
-2.20803999900817871094e+00,
-1.12188374996185302734e+00,
-4.23774212598800659180e-01,
-9.78282511234283447266e-01,
-1.17059993743896484375e+00,
-4.48358833789825439453e-01,
-4.76551681756973266602e-01,
-7.07116186618804931641e-01,
-3.46494495868682861328e-01,
-6.72167122364044189453e-01,
-6.61572396755218505859e-01,
-7.96191751956939697266e-01,
-2.88573533296585083008e-01,
-3.98544251918792724609e-01,
-1.24795392155647277832e-01,
-8.16464781761169433594e-01,
-7.20384001731872558594e-01,
-6.80823624134063720703e-01,
-8.16444396972656250000e-01,
-4.91905182600021362305e-01,
-3.22240620851516723633e-01,
6.27176046371459960938e-01,
6.38265311717987060547e-01,
7.27443039417266845703e-01,
7.30403721332550048828e-01,
-2.06257909536361694336e-01,
-6.87437355518341064453e-01,
4.06483799219131469727e-01,
7.57401213049888610840e-02,
1.52980566024780273438e-01,
3.22870707511901855469e+00,
3.40050888061523437500e+00,
3.37603926658630371094e+00,
2.56900727748870849609e-01,
-1.33449230343103408813e-02,
-1.32017936706542968750e+01,
2.70460322499275207520e-02,
1.39202788472175598145e-01,
1.98792051523923873901e-02,
6.37301569804549217224e-03,
-1.70421525835990905762e-02,
-6.71209171414375305176e-02,
5.14358887448906898499e-03,
-6.49338960647583007812e-02,
9.07008424401283264160e-02,
-7.20759248360991477966e-03,
-1.00517878308892250061e-02,
-1.04300267994403839111e-01,
-9.15954709053039550781e-02,
-1.17587625980377197266e-01,
-1.73825889825820922852e-01,
-7.14638084173202514648e-02,
-1.93924307823181152344e-02,
-3.74812573194503784180e-01,
-8.73362720012664794922e-02,
-9.36966910958290100098e-02,
1.55046686530113220215e-01,
1.35411664843559265137e-01,
-2.74950832128524780273e-01,
-3.07676672935485839844e-01,
-4.67656403779983520508e-02,
6.21934793889522552490e-03,
2.96119116246700286865e-02,
-8.52795764803886413574e-02,
2.56746172904968261719e-01,
2.41364285349845886230e-01,
-2.49995917081832885742e-01,
-8.77131760120391845703e-01,
-5.25630218908190727234e-03,
-8.42293053865432739258e-02,
3.67935635149478912354e-02,
-9.14282053709030151367e-02,
8.42688698321580886841e-03,
-1.15955434739589691162e-01,
-1.37539505958557128906e-01,
-3.12771141529083251953e-01,
-7.68524184823036193848e-02,
-1.98970846831798553467e-02,
9.58035513758659362793e-02,
4.14493009448051452637e-02,
6.84797316789627075195e-02,
9.29729342460632324219e-02,
-1.12797148525714874268e-01,
-1.69533953070640563965e-01,
5.42728044092655181885e-03,
8.49085673689842224121e-03,
9.02919322252273559570e-02,
1.71204581856727600098e-02,
-2.72665731608867645264e-02,
-2.99225859344005584717e-02,
2.37251482903957366943e-02,
-1.38298451900482177734e-01,
-3.00579071044921875000e-02,
2.38384380936622619629e-02,
-5.64650930464267730713e-02,
7.01842233538627624512e-02,
9.40298568457365036011e-03,
9.48610231280326843262e-02,
3.84313352406024932861e-02,
-8.74301716685295104980e-02,
-3.55452132225036621094e+00,
1.08812205493450164795e-01,
2.11517680436372756958e-02,
1.23028591275215148926e-01,
1.72421947121620178223e-01,
1.38569965958595275879e-01,
1.10530510544776916504e-01,
1.13280199468135833740e-01,
1.26742184162139892578e-01,
-3.20296138525009155273e-01,
-2.90667563676834106445e-01,
1.56145587563514709473e-01,
1.57953545451164245605e-01,
7.58160427212715148926e-02,
7.85170197486877441406e-02,
-1.09214603900909423828e-01,
-3.34833413362503051758e-02,
-4.51964698731899261475e-03,
3.76922637224197387695e-02,
-2.53285586833953857422e-01,
-2.00002074241638183594e-01,
2.68834888935089111328e-01,
1.69427141547203063965e-01,
2.56925314664840698242e-01,
3.33355158567428588867e-01,
-1.84505835175514221191e-01,
3.72177339158952236176e-03,
-1.74074813723564147949e-01,
-1.27382814884185791016e-01,
5.91017939150333404541e-02,
3.08080583810806274414e-01,
2.29759365320205688477e-01,
2.96653747558593750000e-01,
-2.66511321067810058594e-01,
-6.37199059128761291504e-02,
-1.89007580280303955078e-01,
-2.10921466350555419922e-01,
8.07755216956138610840e-02,
1.09357841312885284424e-01,
1.82579740881919860840e-01,
1.55602633953094482422e-01,
-2.43703410029411315918e-01,
-1.36501088738441467285e-01,
-8.62136408686637878418e-02,
-1.71489745378494262695e-01,
-4.55513447523117065430e-02,
1.84628129005432128906e-01,
7.88738727569580078125e-02,
1.19809515774250030518e-01,
-3.38250666856765747070e-01,
-2.92655706405639648438e-01,
-7.73113146424293518066e-02,
-9.75082740187644958496e-02,
-1.18685223162174224854e-01,
-1.07532218098640441895e-02,
1.49561554193496704102e-01,
1.50551602244377136230e-01,
-2.17500105500221252441e-01,
-3.52938473224639892578e-01,
-1.82002708315849304199e-01,
1.30122572183609008789e-01,
1.60168558359146118164e-02,
9.27635841071605682373e-03,
4.51581887900829315186e-02,
2.28517934679985046387e-01,
-2.87611579895019531250e+00,
-8.15201178193092346191e-02,
1.08444541692733764648e-01,
8.64001959562301635742e-02,
3.14092636108398437500e-02,
1.85265541076660156250e-01,
7.42743760347366333008e-02,
3.76759916543960571289e-02,
1.09603041782975196838e-02,
-8.06987378746271133423e-03,
9.65563952922821044922e-02,
1.07392378151416778564e-01,
6.06675967574119567871e-02,
6.58771246671676635742e-02,
1.16878196597099304199e-01,
1.67514234781265258789e-01,
6.77985921502113342285e-02,
-1.31149170920252799988e-03,
9.90882865153253078461e-04,
-6.59573078155517578125e-02,
1.80676430463790893555e-01,
2.46971957385540008545e-02,
1.69770628213882446289e-01,
1.28802075982093811035e-01,
3.00209783017635345459e-02,
4.63374406099319458008e-02,
2.20608455128967761993e-03,
2.55205463618040084839e-02,
1.65708884596824645996e-01,
1.93461880087852478027e-01,
1.03961877524852752686e-01,
1.48362278938293457031e-01,
1.89415872097015380859e-01,
3.23143554851412773132e-04,
1.97578612715005874634e-02,
1.20115065947175025940e-02,
7.10080564022064208984e-02,
6.03751130402088165283e-02,
3.42480139806866645813e-04,
1.36294066905975341797e-01,
1.29445254802703857422e-01,
7.50228762626647949219e-02,
1.21266357600688934326e-02,
9.09405723214149475098e-02,
4.45307381451129913330e-02,
4.15488369762897491455e-02,
1.22602812945842742920e-01,
1.67967841029167175293e-01,
1.19002930819988250732e-01,
-2.61135259643197059631e-03,
2.00240597128868103027e-01,
1.00330211222171783447e-01,
3.12293227761983871460e-02,
1.59575283527374267578e-01,
1.97567157447338104248e-02,
4.92794588208198547363e-02,
-4.61882948875427246094e-01,
1.19402796030044555664e-01,
1.69413581490516662598e-01,
5.53627796471118927002e-02,
1.03875599801540374756e-01,
6.98253214359283447266e-02,
2.01341003179550170898e-01,
9.41272899508476257324e-02,
-3.92314255237579345703e-01,
-5.27860736846923828125e+00,
-9.04418468475341796875e-01,
-5.11167496442794799805e-02,
1.87120646238327026367e-01,
1.49171993136405944824e-01,
1.13120473921298980713e-01,
-2.32340507209300994873e-02,
7.74965137243270874023e-02,
2.00514644384384155273e-01,
6.25822842121124267578e-01,
-3.90491932630538940430e-01,
9.69465672969818115234e-02,
1.46656528115272521973e-01,
5.95899820327758789062e-02,
-1.32560014724731445312e-01,
3.78713905811309814453e-02,
-6.57931268215179443359e-02,
6.82109653949737548828e-01,
-1.35693877935409545898e-01,
1.01002201437950134277e-01,
9.40699204802513122559e-02,
-9.93908643722534179688e-02,
-1.58434361219406127930e-01,
-2.21054092049598693848e-01,
-1.56493872404098510742e-01,
1.79587554931640625000e+00,
-4.17832769453525543213e-02,
1.15369774401187896729e-01,
-4.46522757411003112793e-02,
-1.43843144178390502930e-01,
-2.39354923367500305176e-01,
-1.24092772603034973145e-01,
-1.17300786077976226807e-02,
1.10606622695922851562e+00,
1.82048156857490539551e-01,
7.74939954280853271484e-02,
2.82137840986251831055e-02,
-1.11990250647068023682e-01,
-1.55227333307266235352e-01,
-2.23945528268814086914e-01,
-2.17694178223609924316e-01,
2.20260858535766601562e+00,
5.40029227733612060547e-01,
-9.43234786391258239746e-02,
-1.49090752005577087402e-01,
-6.85339689254760742188e-01,
-6.28387391567230224609e-01,
-6.15001440048217773438e-01,
-4.70494270324707031250e-01,
3.59887051582336425781e+00,
4.97206687927246093750e-01,
6.68359128758311271667e-03,
-1.32275328040122985840e-01,
-6.98155999183654785156e-01,
-4.82055366039276123047e-01,
-7.03580796718597412109e-01,
-8.12616050243377685547e-01,
4.72796344757080078125e+00,
1.00036001205444335938e+00,
7.89300948381423950195e-02,
-8.02583321928977966309e-02,
-6.85776412487030029297e-01,
-1.06466233730316162109e+00,
-7.81448781490325927734e-01,
-1.19460821151733398438e+00,
-8.03367710113525390625e+00,
5.46888299286365509033e-02,
8.98320302367210388184e-02,
9.87936556339263916016e-02,
2.20678909681737422943e-03,
1.67380198836326599121e-01,
1.62322834134101867676e-01,
1.56427174806594848633e-01,
1.64182394742965698242e-01,
1.81875433772802352905e-02,
8.23218077421188354492e-02,
-4.64956276118755340576e-03,
7.39011988043785095215e-02,
2.70634442567825317383e-01,
2.53355741500854492188e-01,
1.53106123208999633789e-01,
-1.19917783886194229126e-02,
1.52526870369911193848e-01,
1.87134072184562683105e-01,
9.09952595829963684082e-02,
9.82139483094215393066e-02,
1.48933067917823791504e-01,
1.44899204373359680176e-01,
1.79105356335639953613e-01,
1.90538883209228515625e-01,
2.29469642043113708496e-01,
2.74413675069808959961e-01,
2.58415669202804565430e-01,
2.54565328359603881836e-01,
1.65086731314659118652e-01,
1.69796586036682128906e-01,
1.78096890449523925781e-01,
2.37889021635055541992e-01,
2.76958048343658447266e-01,
9.53073203563690185547e-02,
2.57828444242477416992e-01,
2.61494904756546020508e-01,
2.76124894618988037109e-01,
2.29581147432327270508e-01,
2.40994140505790710449e-01,
1.09629295766353607178e-01,
1.28552585840225219727e-01,
2.53704339265823364258e-01,
2.01189160346984863281e-01,
1.23650111258029937744e-01,
2.29011505842208862305e-01,
1.70520693063735961914e-01,
1.25843927264213562012e-01,
1.03961244225502014160e-01,
7.89690017700195312500e-02,
1.38153836131095886230e-01,
1.23489767313003540039e-01,
1.52594789862632751465e-01,
2.06605628132820129395e-01,
2.26156502962112426758e-01,
2.63714700937271118164e-01,
-4.32986050844192504883e-01,
2.22511902451515197754e-01,
2.46629983186721801758e-01,
1.38856664299964904785e-01,
1.15186482667922973633e-01,
1.48447915911674499512e-01,
2.47663497924804687500e-01,
2.88628101348876953125e-01,
-4.14118319749832153320e-01,
-7.19896507263183593750e+00,
1.46353840827941894531e+00,
1.33234596252441406250e+00,
6.75310194492340087891e-01,
2.21232593059539794922e-01,
3.95923793315887451172e-01,
7.21715629100799560547e-01,
2.26646602153778076172e-01,
2.32729732990264892578e-01,
8.41598749160766601562e-01,
1.94587647914886474609e-01,
3.06733757257461547852e-01,
-2.26575676351785659790e-02,
2.30289101600646972656e-02,
3.07768970727920532227e-01,
-6.87609463930130004883e-02,
4.74025048315525054932e-02,
2.72264778614044189453e-01,
-3.16816531121730804443e-02,
-2.31968119740486145020e-01,
-1.42043814063072204590e-01,
9.39282551407814025879e-02,
1.52307540178298950195e-01,
1.14654146134853363037e-01,
-1.13986961543560028076e-01,
3.86468805372714996338e-02,
-1.39758110046386718750e-01,
-1.58588767051696777344e-01,
-1.35186806321144104004e-01,
1.32656931877136230469e-01,
1.71033695340156555176e-01,
-1.53705880045890808105e-01,
-1.78191736340522766113e-01,
5.50525858998298645020e-02,
-1.70377418398857116699e-01,
-2.67941743135452270508e-01,
-8.04429426789283752441e-02,
-1.95265069603919982910e-01,
-1.00569359958171844482e-01,
-1.03890798985958099365e-01,
-2.64707118272781372070e-01,
-1.52535364031791687012e-02,
-1.68138757348060607910e-01,
-2.50409454107284545898e-01,
-2.09380045533180236816e-01,
-2.11094692349433898926e-01,
-2.24727496504783630371e-01,
-8.43712016940116882324e-02,
-2.20534980297088623047e-01,
-1.18437111377716064453e-01,
-2.20180422067642211914e-01,
-2.70356476306915283203e-01,
-2.53065198659896850586e-01,
-4.83664348721504211426e-02,
-1.14263378083705902100e-01,
-1.60977572202682495117e-01,
-6.16433545947074890137e-02,
6.30173087120056152344e-02,
1.21800154447555541992e-02,
-4.47629168629646301270e-02,
-3.60563211143016815186e-03,
-3.46515290439128875732e-02,
6.54449611902236938477e-02,
7.92677924036979675293e-02,
1.57083481550216674805e-01,
-5.81501054763793945312e+00,
9.26864519715309143066e-02,
1.60706058144569396973e-01,
2.42986276745796203613e-01,
9.57027822732925415039e-02,
1.59187033772468566895e-01,
2.74697452783584594727e-01,
2.97618091106414794922e-01,
2.69124150276184082031e-01,
8.40741991996765136719e-02,
1.35834395885467529297e-01,
1.09019927680492401123e-01,
1.50388956069946289062e-01,
1.45336896181106567383e-01,
1.89013212919235229492e-01,
2.84017443656921386719e-01,
1.78209647536277770996e-01,
1.72853767871856689453e-01,
2.71964967250823974609e-01,
1.21963307261466979980e-01,
2.66594886779785156250e-01,
1.39952629804611206055e-01,
2.88677901029586791992e-01,
2.98764795064926147461e-01,
2.80062109231948852539e-01,
1.40969410538673400879e-01,
1.93802058696746826172e-01,
1.56196385622024536133e-01,
1.53906315565109252930e-01,
2.19595208764076232910e-01,
2.47662439942359924316e-01,
2.34938934445381164551e-01,
2.36684575676918029785e-01,
1.21074371039867401123e-01,
1.91432848572731018066e-01,
2.27257013320922851562e-01,
1.96658939123153686523e-01,
1.83087021112442016602e-01,
2.36352548003196716309e-01,
1.67018488049507141113e-01,
1.89087733626365661621e-01,
8.70781019330024719238e-02,
1.88157156109809875488e-01,
2.32071056962013244629e-01,
1.33736178278923034668e-01,
7.78698176145553588867e-02,
2.25164353847503662109e-01,
2.21696317195892333984e-01,
-4.13250803947448730469e-01,
-3.82119625806808471680e-01,
2.49230280518531799316e-01,
1.50794550776481628418e-01,
2.44384154677391052246e-01,
2.38560661673545837402e-01,
-4.34173822402954101562e-01,
-3.58252167701721191406e-01,
-4.71821427345275878906e-01,
-5.62058031558990478516e-01,
-1.16676175966858863831e-02,
7.01886489987373352051e-02,
1.02478519082069396973e-01,
-5.74109017848968505859e-01,
-4.88621354103088378906e-01,
-4.52884227037429809570e-01,
-5.33739984035491943359e-01,
-6.07986211776733398438e+00,
-1.09782747924327850342e-01,
-7.51554444432258605957e-02,
-1.51603743433952331543e-01,
-2.35281080007553100586e-01,
-2.26677209138870239258e-01,
-2.61831760406494140625e-01,
-3.23334902524948120117e-01,
-1.06127493083477020264e-01,
1.65081582963466644287e-02,
-1.23399622738361358643e-01,
-5.64789399504661560059e-02,
-1.27958014607429504395e-01,
-1.84899657964706420898e-01,
-1.32533982396125793457e-01,
-1.14585354924201965332e-01,
-1.37699902057647705078e-01,
8.16854909062385559082e-02,
-1.47599861025810241699e-01,
-2.04177111387252807617e-01,
-1.75194784998893737793e-01,
-2.26929977536201477051e-01,
1.38135716319084167480e-01,
-7.58926123380661010742e-02,
-1.25355765223503112793e-01,
1.15772813558578491211e-01,
-1.25898972153663635254e-01,
-1.52906104922294616699e-01,
-1.65314048528671264648e-01,
-4.62776571512222290039e-02,
2.45381519198417663574e-01,
1.99746653437614440918e-01,
1.56603023409843444824e-01,
2.49667912721633911133e-02,
1.64122506976127624512e-02,
-1.30982860922813415527e-01,
-2.63819973915815353394e-02,
4.40073497593402862549e-02,
5.08719086647033691406e-01,
5.46074807643890380859e-01,
5.72876632213592529297e-01,
3.86761933565139770508e-01,
-2.88465637713670730591e-02,
-8.66352170705795288086e-02,
-1.13785311579704284668e-01,
-1.18883065879344940186e-01,
1.14543527364730834961e-01,
5.21972537040710449219e-01,
3.66205364465713500977e-01,
1.61089301109313964844e-01,
-2.71871294826269149780e-02,
-9.53754261136054992676e-02,
-1.71112969517707824707e-01,
2.31455340981483459473e-02,
-4.60768537595868110657e-03,
-7.32074826955795288086e-02,
2.88438014686107635498e-02,
-1.42256781458854675293e-01,
-5.00902682542800903320e-02,
-2.74353653192520141602e-01,
-8.18283021450042724609e-01,
-5.12522876262664794922e-01,
-3.14138263463973999023e-01,
-1.02513141930103302002e-01,
-1.69117227196693420410e-01,
-3.95805716514587402344e+00,
-1.49227946996688842773e-01,
-1.43189981579780578613e-01,
-1.48411646485328674316e-01,
-7.79563263058662414551e-02,
-4.36962721869349479675e-03,
-1.64938271045684814453e-01,
-4.39083091914653778076e-02,
-3.09190638363361358643e-02,
-7.93251022696495056152e-02,
-1.85878239572048187256e-02,
-6.57792761921882629395e-02,
-1.23479224741458892822e-01,
-8.64737704396247863770e-02,
2.62772262096405029297e-01,
-1.05656333267688751221e-01,
7.10973888635635375977e-02,
4.97208796441555023193e-02,
-1.04154467582702636719e-01,
2.03285459429025650024e-02,
-1.24242138117551803589e-02,
3.11951726675033569336e-01,
3.20900470018386840820e-01,
6.93450719118118286133e-02,
4.83619272708892822266e-02,
-1.17990143597126007080e-01,
-1.92086882889270782471e-02,
-1.11848622560501098633e-01,
-3.70423942804336547852e-02,
2.22864314913749694824e-01,
2.94955492019653320312e-01,
-1.48479714989662170410e-01,
-1.71612724661827087402e-02,
-1.23712413012981414795e-01,
-8.62098634243011474609e-02,
-1.10465340316295623779e-01,
-1.54886275529861450195e-01,
-1.09318643808364868164e-01,
-2.56436858326196670532e-02,
-5.88838756084442138672e-02,
-1.26362601295113563538e-02,
-2.18259349465370178223e-01,
-3.04944932460784912109e-01,
-3.46616983413696289062e-01,
-6.45298779010772705078e-01,
-1.18493175506591796875e+00,
-4.46246504783630371094e-01,
-4.82145369052886962891e-01,
-5.70815019309520721436e-02,
-5.90468123555183410645e-02,
-1.49758219718933105469e-01,
-3.33684459328651428223e-02,
-1.38110399246215820312e-01,
3.00567839294672012329e-02,
-6.55111446976661682129e-02,
-1.24760285019874572754e-01,
-1.60474717617034912109e-01,
3.16223502159118652344e-01,
4.19502377510070800781e-01,
4.58812177181243896484e-01,
4.28172409534454345703e-01,
4.02010500431060791016e-01,
4.80862140655517578125e-01,
1.13686569035053253174e-01,
8.20931643247604370117e-02,
-4.46278667449951171875e+00,
3.85020703077316284180e-01,
4.79210883378982543945e-01,
5.22265672683715820312e-01,
3.74704718589782714844e-01,
1.25209346413612365723e-01,
-3.21138343811035156250e+01,
-1.84291446208953857422e+00,
-1.65409028530120849609e+00,
1.83023661375045776367e-01,
4.29897427558898925781e-01,
5.66591143608093261719e-01,
5.65624058246612548828e-01,
4.11984413862228393555e-01,
4.18809384107589721680e-01,
2.60701268911361694336e-01,
7.03868176788091659546e-03,
1.11973714828491210938e+00,
4.73915725946426391602e-01,
7.81044900417327880859e-01,
6.46259784698486328125e-01,
5.67162096500396728516e-01,
4.77377325296401977539e-01,
5.34328281879425048828e-01,
5.59115529060363769531e-01,
7.88995921611785888672e-02,
3.39020162820816040039e-01,
5.67849040031433105469e-01,
7.06624567508697509766e-01,
5.93229949474334716797e-01,
5.86705684661865234375e-01,
5.20602405071258544922e-01,
6.17478907108306884766e-01,
-4.61237013339996337891e-01,
3.35024744272232055664e-01,
4.25012111663818359375e-01,
2.35714745521545410156e+00,
3.21404123306274414062e+00,
1.56283974647521972656e+00,
1.36272192001342773438e+00,
3.13168954849243164062e+00,
-5.17414808273315429688e+00,
-6.45015358924865722656e-01,
4.50643271207809448242e-01,
6.55311644077301025391e-01,
9.72902297973632812500e-01,
3.24372315406799316406e+00,
3.90380001068115234375e+00,
1.68614780902862548828e+00,
-1.08270320892333984375e+01,
-1.93167507648468017578e+00,
-4.36229944229125976562e-01,
9.82001841068267822266e-01,
1.15055351257324218750e+01,
4.51085090637207031250e+00,
4.55030918121337890625e+00,
8.07988071441650390625e+00,
-4.38514404296875000000e+01,
-5.96101379394531250000e+00,
-8.35282504558563232422e-01,
-5.13665974140167236328e-01,
1.35302293300628662109e+00,
1.08700084686279296875e+01,
5.28641343116760253906e-01,
7.50760316848754882812e-01,
-2.19599933624267578125e+01,
-2.86420404911041259766e-01,
-1.71167850494384765625e-01,
-1.68500289320945739746e-01,
-1.62884742021560668945e-01,
-9.10902917385101318359e-02,
-1.98606356978416442871e-01,
-1.46975994110107421875e-01,
-3.37620079517364501953e-01,
-1.00240059196949005127e-01,
-1.71871885657310485840e-01,
-1.75107717514038085938e-01,
-9.11311153322458267212e-03,
-1.16694495081901550293e-02,
7.49000832438468933105e-02,
-7.50966966152191162109e-02,
-7.61445015668869018555e-02,
-2.24642202258110046387e-01,
-1.75023347139358520508e-01,
-7.76382461190223693848e-02,
-8.80931764841079711914e-02,
-1.16855442523956298828e-01,
9.08237770199775695801e-02,
-5.34109249711036682129e-02,
-2.82734911888837814331e-02,
-3.40863525867462158203e-01,
-1.42918318510055541992e-01,
-1.44394010305404663086e-01,
-1.84512719511985778809e-01,
-7.35103562474250793457e-02,
-1.09411917626857757568e-01,
3.26950438320636749268e-02,
6.47719427943229675293e-02,
-1.49399250745773315430e-01,
-2.45174065232276916504e-01,
-1.24056436121463775635e-01,
-2.79162466526031494141e-01,
-2.51936942338943481445e-01,
-1.14915430545806884766e-01,
-4.61683608591556549072e-02,
5.78195378184318542480e-02,
1.06131069362163543701e-01,
-1.11916035413742065430e-01,
-8.71599465608596801758e-02,
-2.55117148160934448242e-01,
-1.23245246708393096924e-01,
-1.62134855985641479492e-01,
-1.50773063302040100098e-01,
-1.75744175910949707031e-01,
1.58908411860466003418e-01,
1.53530677780508995056e-02,
-3.28765362501144409180e-02,
-2.43313908576965332031e-02,
-3.05914767086505889893e-02,
-5.50260059535503387451e-02,
-1.14101789891719818115e-01,
-1.16462118923664093018e-01,
5.05720555782318115234e-01,
3.86682063341140747070e-01,
-4.59427200257778167725e-03,
-1.30327984690666198730e-01,
-1.23947791755199432373e-01,
-1.41724973917007446289e-01,
-1.45278498530387878418e-01,
-1.56117826700210571289e-01,
-4.99907541275024414062e+00,
-6.63383483886718750000e-01,
-6.04056477546691894531e-01,
-5.47457993030548095703e-01,
1.50211647152900695801e-01,
-8.48927162587642669678e-03,
-5.66510319709777832031e-01,
-6.56425237655639648438e-01,
2.32165753841400146484e-02,
1.38747274875640869141e-01,
-6.03758752346038818359e-01,
7.44676068425178527832e-02,
2.57161054760217666626e-02,
3.62141244113445281982e-02,
1.34357973933219909668e-01,
-4.65285271406173706055e-01,
2.63444632291793823242e-01,
-4.36028033494949340820e-01,
-1.49888798594474792480e-01,
-4.92225512862205505371e-02,
-3.54911684989929199219e-02,
-4.60349246859550476074e-02,
9.31722149252891540527e-02,
1.27445504069328308105e-01,
-2.60360594838857650757e-02,
2.64272112399339675903e-02,
3.08493059128522872925e-03,
5.25064356625080108643e-02,
8.38686302304267883301e-02,
5.52214011549949645996e-02,
8.60503092408180236816e-02,
-3.96612584590911865234e-02,
1.07824765145778656006e-01,
5.82284368574619293213e-02,
1.21030353009700775146e-01,
1.42698884010314941406e-01,
5.13288453221321105957e-02,
1.60706654191017150879e-01,
9.00068059563636779785e-02,
6.11149147152900695801e-02,
1.45343393087387084961e-01,
3.57143789529800415039e-01,
2.69018381834030151367e-01,
1.94240763783454895020e-01,
1.58091008663177490234e-01,
1.66491165757179260254e-01,
1.45032420754432678223e-01,
3.71795594692230224609e-02,
4.69308421015739440918e-02,
4.54298824071884155273e-01,
1.36030122637748718262e-01,
1.06386914849281311035e-01,
8.20810943841934204102e-02,
2.40794420242309570312e-01,
6.77696093916893005371e-02,
9.34166014194488525391e-02,
1.12843431532382965088e-01,
2.00844690203666687012e-01,
3.26335102319717407227e-01,
1.48751568794250488281e+00,
8.03084075450897216797e-01,
3.98365765810012817383e-01,
3.27345103025436401367e-01,
4.53129023313522338867e-01,
4.34675067663192749023e-01,
-6.61050367355346679688e+00,
-3.71012091636657714844e+00,
1.04389238357543945312e+00,
8.68804514408111572266e-01,
8.66889476776123046875e-01,
9.57593977451324462891e-01,
5.02949416637420654297e-01,
-1.66826337575912475586e-01,
-1.07239760458469390869e-01,
-6.46507740020751953125e-01,
5.91319948434829711914e-02,
3.16018491983413696289e-01,
9.41337585449218750000e-01,
1.05291664600372314453e+00,
2.84416586160659790039e-01,
-2.00540140271186828613e-01,
-2.88558930158615112305e-01,
-6.27962291240692138672e-01,
-5.85723333060741424561e-02,
-4.94299121201038360596e-02,
1.68771490454673767090e-01,
2.81145751476287841797e-01,
1.08616864681243896484e+00,
-2.44283512234687805176e-01,
-1.39168524742126464844e+00,
-1.32238101959228515625e+00,
-1.93810999393463134766e-01,
-1.18521340191364288330e-01,
2.85634064674377441406e+00,
3.40370726585388183594e+00,
7.47018456459045410156e-01,
-5.25819659233093261719e-01,
-4.96095085144042968750e+00,
-4.88538533449172973633e-01,
-1.75037249922752380371e-01,
-2.72811166942119598389e-02,
4.79647934436798095703e-01,
2.68578708171844482422e-01,
-1.76380902528762817383e-01,
-3.34591299295425415039e-01,
-9.70275402069091796875e-01,
-6.89985394477844238281e-01,
-1.22858002781867980957e-01,
9.16919887065887451172e-01,
1.26476156711578369141e+00,
2.66999900341033935547e-01,
9.56873595714569091797e-02,
-1.37025713920593261719e-01,
-5.11413812637329101562e-01,
-5.57797551155090332031e-01,
-3.80921885371208190918e-02,
2.37389370799064636230e-01,
2.37428927421569824219e+00,
1.73652306199073791504e-01,
4.19620312750339508057e-02,
9.05704917386174201965e-04,
-1.66507378220558166504e-01,
-4.28119778633117675781e-01,
-1.45879818592220544815e-03,
7.70013481378555297852e-02,
1.00650751590728759766e+00,
5.04056632518768310547e-01,
2.60717809200286865234e-01,
9.18670892715454101562e-01,
2.68898010253906250000e-01,
-7.48521471023559570312e+00,
1.24802745878696441650e-01,
2.17971131205558776855e-01,
2.32149809598922729492e-01,
1.53867051005363464355e-01,
2.85267263650894165039e-01,
2.83397167921066284180e-01,
1.91304057836532592773e-01,
2.13004738092422485352e-01,
8.30768048763275146484e-02,
7.97020047903060913086e-02,
2.15097680687904357910e-01,
2.26695850491523742676e-01,
2.40722149610519409180e-01,
5.40327653288841247559e-02,
1.42280727624893188477e-01,
2.69926458597183227539e-01,
9.62707698345184326172e-02,
1.18268713355064392090e-01,
7.02061355113983154297e-02,
2.22724840044975280762e-01,
6.93981125950813293457e-02,
2.10675850510597229004e-01,
2.09194973111152648926e-01,
2.26344138383865356445e-01,
4.30116020143032073975e-02,
1.93731352686882019043e-01,
9.21405255794525146484e-02,
1.04481145739555358887e-01,
6.47272244095802307129e-02,
2.17944145202636718750e-01,
2.35249057412147521973e-01,
1.44786894321441650391e-01,
1.51424989104270935059e-01,
2.10777252912521362305e-01,
4.20692563056945800781e-02,
1.67469769716262817383e-01,
1.94710105657577514648e-01,
1.40345901250839233398e-01,
8.74469652771949768066e-02,
2.43079692125320434570e-01,
1.39351114630699157715e-01,
1.87864266335964202881e-02,
2.13479012250900268555e-01,
1.60692662000656127930e-01,
5.64999803900718688965e-02,
5.65254911780357360840e-02,
1.38311326503753662109e-01,
1.18582054972648620605e-01,
1.03401519358158111572e-01,
1.29968211054801940918e-01,
8.64719823002815246582e-02,
1.55168816447257995605e-01,
1.23444497585296630859e-01,
5.59100061655044555664e-02,
1.41883045434951782227e-01,
-4.37820434570312500000e-01,
2.13311508297920227051e-01,
1.90762594342231750488e-01,
1.96284964680671691895e-01,
2.34257891774177551270e-01,
1.64925888180732727051e-01,
1.87712997198104858398e-01,
1.35271906852722167969e-01,
1.74024343490600585938e-01,
-6.20694923400878906250e+00,
2.44176402688026428223e-01,
3.87207418680191040039e-01,
2.42732658982276916504e-01,
3.59531939029693603516e-01,
5.17981052398681640625e-01,
5.48145890235900878906e-01,
3.03317904472351074219e-01,
2.21059188246726989746e-01,
2.04549610614776611328e-01,
2.34959781169891357422e-01,
2.62818306684494018555e-01,
2.57459372282028198242e-01,
3.25290620326995849609e-01,
6.24313712120056152344e-01,
3.43804359436035156250e-01,
2.41970196366310119629e-01,
3.60155582427978515625e-01,
2.64063775539398193359e-01,
3.37977170944213867188e-01,
1.97872430086135864258e-01,
6.56958818435668945312e-01,
5.16582012176513671875e-01,
6.51267409324645996094e-01,
3.01837384700775146484e-01,
3.52144718170166015625e-01,
3.48647236824035644531e-01,
2.28223323822021484375e-01,
3.12583714723587036133e-01,
5.29850482940673828125e-01,
5.85478663444519042969e-01,
2.23482504487037658691e-01,
3.19717347621917724609e-01,
2.63325512409210205078e-01,
2.98791766166687011719e-01,
3.16558152437210083008e-01,
3.22712540626525878906e-01,
3.67687195539474487305e-01,
2.33891263604164123535e-01,
3.70932757854461669922e-01,
2.02703759074211120605e-01,
2.65877246856689453125e-01,
2.41088896989822387695e-01,
2.72673904895782470703e-01,
2.08611190319061279297e-01,
3.82575541734695434570e-01,
2.32152715325355529785e-01,
2.65091210603713989258e-01,
3.47448050975799560547e-01,
3.00424098968505859375e-01,
2.05375030636787414551e-01,
3.62251400947570800781e-01,
2.70895421504974365234e-01,
2.36873134970664978027e-01,
3.39923679828643798828e-01,
3.89957338571548461914e-01,
1.91526532173156738281e-01,
3.51657979190349578857e-02,
-3.09292748570442199707e-02,
7.93271586298942565918e-02,
7.71345645189285278320e-02,
6.61522150039672851562e-02,
2.26022779941558837891e-01,
1.19237517938017845154e-02,
-3.96676152944564819336e-01,
-6.32552289962768554688e+00,
2.37457141280174255371e-01,
1.78294360637664794922e-01,
8.18766877055168151855e-02,
9.47486460208892822266e-02,
1.86515942215919494629e-01,
1.28369778394699096680e-01,
1.98178350925445556641e-01,
2.32967898249626159668e-01,
1.85156911611557006836e-01,
1.57356500625610351562e-01,
1.82966709136962890625e-01,
2.07309991121292114258e-01,
2.57253825664520263672e-01,
1.89457610249519348145e-01,
1.78657844662666320801e-01,
9.11974534392356872559e-02,
1.51265650987625122070e-01,
2.04372197389602661133e-01,
7.59153887629508972168e-02,
7.64015391469001770020e-02,
1.74725398421287536621e-01,
1.50369226932525634766e-01,
2.35255956649780273438e-01,
2.84485846757888793945e-01,
4.68809679150581359863e-02,
1.14149458706378936768e-01,
1.49873584508895874023e-01,
2.02257812023162841797e-01,
1.86740577220916748047e-01,
1.98461100459098815918e-01,
1.40690580010414123535e-01,
2.44374752044677734375e-01,
1.40497595071792602539e-01,
1.28727108240127563477e-01,
2.11553663015365600586e-01,
8.38349163532257080078e-02,
1.93804144859313964844e-01,
1.82866856455802917480e-01,
2.66878306865692138672e-01,
2.09380164742469787598e-01,
7.44038224220275878906e-02,
1.68377608060836791992e-01,
1.25234007835388183594e-01,
9.22985225915908813477e-02,
1.55059650540351867676e-01,
2.71197468042373657227e-01,
1.12869769334793090820e-01,
2.73478537797927856445e-01,
2.41931304335594177246e-01,
1.39898627996444702148e-01,
1.04412093758583068848e-01,
2.18534067273139953613e-01,
2.11684107780456542969e-01,
2.60077923536300659180e-01,
2.17075958847999572754e-01,
-3.78807634115219116211e-01,
1.57708138227462768555e-01,
1.35003626346588134766e-01,
1.96408569812774658203e-01,
1.17328606545925140381e-01,
2.69677102565765380859e-01,
2.41749718785285949707e-01,
2.88391768932342529297e-01,
-4.27963823080062866211e-01,
-3.10034227371215820312e+00,
6.22496977448463439941e-02,
-1.15190595388412475586e-01,
-1.30150303244590759277e-01,
-1.00978560745716094971e-01,
-9.11138802766799926758e-02,
3.91486026346683502197e-02,
2.48228117823600769043e-01,
1.45602071285247802734e+00,
4.05623540282249450684e-02,
-1.81014761328697204590e-01,
-2.91227102279663085938e-01,
-4.52705562114715576172e-01,
-5.23801892995834350586e-02,
-1.12933620810508728027e-01,
8.53641703724861145020e-02,
3.41116458177566528320e-01,
-5.01380488276481628418e-02,
-7.99952745437622070312e-02,
-4.56962168216705322266e-01,
-7.51159310340881347656e-01,
-4.06080991029739379883e-01,
-1.41931891441345214844e-01,
-2.44557280093431472778e-02,
-1.28831537440419197083e-02,
1.01379267871379852295e-02,
-4.99187260866165161133e-02,
-4.08516436815261840820e-01,
-1.21121895313262939453e+00,
-7.77304053306579589844e-01,
-1.31032496690750122070e-01,
4.80295479064807295799e-04,
5.02517540007829666138e-03,
1.22544758021831512451e-01,
1.25745916739106178284e-02,
-7.61086940765380859375e-02,
-1.70917898416519165039e-01,
-1.54950678348541259766e-01,
-1.07912225648760795593e-02,
-8.32952484488487243652e-02,
4.27441745996475219727e-02,
4.16747957468032836914e-01,
-1.35048544034361839294e-02,
1.60859990864992141724e-02,
2.37752366811037063599e-02,
-1.28998281434178352356e-02,
-2.16846317052841186523e-02,
3.21116521954536437988e-02,
1.77888393402099609375e-01,
3.68857294321060180664e-01,
-4.38582450151443481445e-02,
-9.37687978148460388184e-02,
-1.18778020143508911133e-01,
-7.76716619729995727539e-02,
2.58400407619774341583e-03,
1.26196339726448059082e-01,
2.59733855724334716797e-01,
2.29835033416748046875e-01,
9.59197208285331726074e-02,
-3.25131267309188842773e-02,
2.69529782235622406006e-02,
-8.91011282801628112793e-02,
8.82291048765182495117e-02,
1.40168905258178710938e-01,
2.85333156585693359375e-01,
-4.47273206710815429688e+00,
-2.79437112808227539062e+00,
-1.84184765815734863281e+00,
-5.94201147556304931641e-01,
-4.33636814355850219727e-01,
-1.97111606597900390625e-01,
-6.68834894895553588867e-02,
1.76866978406906127930e-01,
1.71431601047515869141e+00,
-9.89724576473236083984e-01,
-8.24390172958374023438e-01,
-3.63119810819625854492e-01,
-3.48895490169525146484e-01,
-2.37021535634994506836e-01,
-2.89274118840694427490e-02,
-1.50222614407539367676e-01,
1.63711464405059814453e+00,
-2.34912186861038208008e-01,
-3.61398100852966308594e-01,
-2.29332834482192993164e-01,
-1.49541005492210388184e-01,
-4.32159006595611572266e-02,
-5.58413267135620117188e-02,
6.77694827318191528320e-02,
6.70484590530395507812e+00,
-1.40885084867477416992e-01,
-2.00507625937461853027e-01,
7.46059641242027282715e-02,
-6.90813586115837097168e-02,
1.80857285857200622559e-01,
3.92457365989685058594e-01,
-1.33206740021705627441e-01,
6.89045786857604980469e-01,
1.91989555954933166504e-01,
1.97157800197601318359e-01,
-7.22435042262077331543e-02,
1.43289238214492797852e-01,
4.02561668306589126587e-03,
-7.83778056502342224121e-02,
-1.44897446036338806152e-01,
3.34788680076599121094e-01,
7.12766408920288085938e-01,
4.48467302322387695312e+00,
-3.75246480107307434082e-02,
-9.63760018348693847656e-02,
-1.66837528347969055176e-01,
-2.46761605143547058105e-01,
-1.55371487140655517578e+00,
-1.53974521160125732422e+00,
8.18849980831146240234e-01,
4.46416187286376953125e+00,
-6.24559931457042694092e-02,
-2.20891267061233520508e-01,
-1.27023905515670776367e-01,
-1.74436971545219421387e-01,
-1.22181105613708496094e+00,
-2.57486605644226074219e+00,
5.36183059215545654297e-01,
1.46011126041412353516e+00,
-2.59722641203552484512e-04,
-3.34092639386653900146e-02,
-1.71325266361236572266e-01,
-4.39230412244796752930e-01,
-9.47625339031219482422e-01,
-8.37253272533416748047e-01,
-8.36865615844726562500e+00,
3.05449128150939941406e-01,
6.42393082380294799805e-02,
8.72347205877304077148e-02,
1.09499089419841766357e-01,
-3.84140759706497192383e-03,
7.37273413687944412231e-03,
6.68542459607124328613e-02,
2.89355367422103881836e-01,
5.66903539001941680908e-02,
3.83691526949405670166e-02,
7.41908000782132148743e-03,
9.85297113656997680664e-02,
-8.08141306042671203613e-02,
2.80174881219863891602e-01,
-2.34218649566173553467e-02,
7.98332467675209045410e-02,
1.47113189101219177246e-01,
-8.18094145506620407104e-03,
-2.74916570633649826050e-02,
7.31664290651679039001e-03,
1.34786680340766906738e-01,
2.02015250921249389648e-01,
-1.27642259001731872559e-01,
1.32831960916519165039e-01,
-4.93365153670310974121e-02,
-1.01864702999591827393e-01,
5.16687706112861633301e-02,
-6.86609447002410888672e-02,
2.12346851825714111328e-01,
1.61316618323326110840e-01,
-2.83332943916320800781e-01,
-2.04087004065513610840e-01,
-4.23716232180595397949e-02,
-3.09185795485973358154e-02,
-1.26769438385963439941e-01,
-1.83288455009460449219e-01,
-2.03664362430572509766e-01,
-7.58516341447830200195e-02,
-2.48846024274826049805e-01,
-2.56363183259963989258e-01,
1.27426199615001678467e-02,
-7.24737048149108886719e-02,
-1.74534723162651062012e-01,
-2.48029842972755432129e-01,
-2.95455247163772583008e-01,
-2.05402523279190063477e-01,
-2.88783460855484008789e-01,
-2.59112924337387084961e-01,
-3.58135625720024108887e-02,
-3.06306015700101852417e-02,
-1.94059073925018310547e-01,
-9.26909297704696655273e-02,
-2.91729241609573364258e-01,
-2.37299948930740356445e-01,
-2.92730242013931274414e-01,
-4.69125449657440185547e-01,
-1.28920659422874450684e-01,
-9.27931517362594604492e-02,
-8.56417417526245117188e-02,
-1.50897920131683349609e-01,
-3.14007520675659179688e-01,
-2.02734082937240600586e-01,
-3.77532541751861572266e-01,
-2.99263864755630493164e-01,
-5.53260374069213867188e+00,
-1.05380371212959289551e-01,
-2.41614937782287597656e-01,
-1.04087367653846740723e-01,
5.19605755805969238281e-01,
-5.61966717243194580078e-01,
-2.03857384622097015381e-03,
-1.43747329711914062500e-01,
1.30281865596771240234e-01,
-4.09521251916885375977e-01,
-3.44664126634597778320e-01,
9.33283269405364990234e-02,
8.51865857839584350586e-02,
-1.35228842496871948242e-01,
-8.48253369331359863281e-02,
-7.84683786332607269287e-03,
5.58409631252288818359e-01,
5.73620200157165527344e-02,
5.06347179412841796875e-01,
3.73623728752136230469e-01,
5.87931454181671142578e-01,
-1.69971391558647155762e-01,
-1.46009802818298339844e-01,
1.13642523065209388733e-02,
-4.55580711364746093750e-01,
2.50100821256637573242e-01,
-1.46838873624801635742e-02,
3.79302442073822021484e-01,
-2.06097185611724853516e-01,
5.71543574333190917969e-01,
-1.66299819946289062500e-01,
-3.15081737935543060303e-02,
-2.10560008883476257324e-01,
1.21322311460971832275e-02,
9.55352425575256347656e-01,
4.40016627311706542969e-01,
-4.96293082833290100098e-02,
5.26876822113990783691e-02,
-4.26496416330337524414e-02,
8.05068202316761016846e-03,
5.00688195228576660156e-01,
1.67484041303396224976e-02,
-1.12093249335885047913e-02,
-7.74482071399688720703e-01,
-4.12453375756740570068e-02,
-6.49879723787307739258e-02,
-9.41414535045623779297e-02,
1.39270469546318054199e-01,
-1.37796199321746826172e+00,
-6.18606470525264739990e-02,
2.67460912466049194336e-01,
1.47583290934562683105e-01,
6.23060502111911773682e-02,
-5.74109219014644622803e-02,
-3.64165119826793670654e-02,
-7.38411396741867065430e-02,
-9.20306332409381866455e-03,
-9.97438579797744750977e-02,
1.41868954524397850037e-02,
-1.79151110351085662842e-02,
1.39364099595695734024e-03,
-2.02673859894275665283e-03,
1.75232402980327606201e-02,
-1.28472924232482910156e-01,
-6.54833465814590454102e-02,
4.84636947512626647949e-02,
-4.54979855567216873169e-03,
4.66497540473937988281e-01,
5.51450848579406738281e-01,
-1.31134599447250366211e-01,
6.50995224714279174805e-02,
2.91074633598327636719e+00,
7.02445767819881439209e-03,
-1.15033507347106933594e+00,
2.46333964169025421143e-02,
-4.25678901374340057373e-02,
-2.61922806501388549805e-01,
-1.23906409740447998047e+00,
-2.25328579545021057129e-01,
-3.48387420177459716797e-01,
-5.44562749564647674561e-02,
5.61984896659851074219e-01,
1.07160575687885284424e-01,
-2.78774112462997436523e-01,
-7.93925449252128601074e-02,
1.16343319416046142578e+00,
9.18507099151611328125e-01,
-8.54723155498504638672e-02,
2.14665383100509643555e-02,
-4.44457903504371643066e-02,
6.88865855336189270020e-02,
9.10354852676391601562e-01,
7.06764170899987220764e-03,
5.78693784773349761963e-02,
6.28547370433807373047e-02,
-1.97493117302656173706e-02,
-1.08190201222896575928e-01,
-5.05496412515640258789e-02,
1.36773979663848876953e+00,
8.76787584275007247925e-03,
-6.92800013348460197449e-03,
3.91457617282867431641e-01,
2.79921921901404857635e-03,
-3.75283583998680114746e-02,
-2.03993010520935058594e+00,
4.00544181466102600098e-02,
-1.10965561866760253906e+00,
6.94957077503204345703e-02,
2.27787569165229797363e-02,
7.95511230826377868652e-02,
3.12427207827568054199e-02,
2.59053170680999755859e-01,
7.01995074748992919922e-01,
1.31087318062782287598e-01,
-1.22551526874303817749e-02,
1.24083943665027618408e-01,
3.18159051239490509033e-02,
9.29998606443405151367e-02,
1.33305966854095458984e+00,
-1.59191775321960449219e+00,
-2.94463753700256347656e-01,
3.19255143404006958008e-02,
-7.68693583086133003235e-03,
5.00936098396778106689e-02,
-7.18458928167819976807e-03,
6.00217804312705993652e-02,
1.09801761806011199951e-01,
-2.14438829571008682251e-02,
2.10605375468730926514e-02,
5.72005987167358398438e-01,
-4.43268001079559326172e-01,
7.74439424276351928711e-02,
-1.19310105219483375549e-03,
2.31054276227951049805e-01,
-2.00274407863616943359e-01,
-7.17637687921524047852e-02,
8.76074358820915222168e-02,
8.60267132520675659180e-02,
9.17213596403598785400e-03,
2.84695148468017578125e-01,
7.33435675501823425293e-02,
4.58971393527463078499e-04,
-4.77626466751098632812e+00,
8.72840508818626403809e-02,
-6.37376755475997924805e-02,
5.31505286693572998047e-01,
5.95343858003616333008e-02,
2.64347791671752929688e-02,
-4.85169701278209686279e-02,
-2.47181966900825500488e-01,
-6.56093135476112365723e-02,
5.40426410734653472900e-02,
-1.05907484889030456543e-01,
-2.49522849917411804199e-02,
-2.14561801403760910034e-02,
9.50538739562034606934e-02,
-6.36199042201042175293e-02,
-3.57945382595062255859e-01,
-8.10484215617179870605e-02,
2.28907484561204910278e-02,
6.56333118677139282227e-02,
-3.60976122319698333740e-02,
-3.93818825483322143555e-01,
-1.36228358745574951172e+00,
9.22287907451391220093e-03,
-2.12898105382919311523e-02,
5.87921366095542907715e-02,
-2.98670262098312377930e-01,
5.26767745614051818848e-02,
-1.13072311505675315857e-02,
-2.90858000516891479492e-01,
-1.31929060444235801697e-02,
-1.12303839996457099915e-02,
-5.82445561885833740234e-02,
-3.12660448253154754639e-02,
-3.91532778739929199219e-02,
-1.12136058509349822998e-01,
-1.30076050758361816406e-01,
-6.83539286255836486816e-02,
-1.14799417555332183838e-01,
-2.53647789359092712402e-02,
-5.12488745152950286865e-02,
2.33954057097434997559e-01,
-5.79647570848464965820e-02,
1.21685542166233062744e-01,
-1.43031179904937744141e-01,
1.67852312326431274414e-01,
-1.88387632369995117188e-02,
-4.29068282246589660645e-02,
4.89377602934837341309e-02,
2.39877790212631225586e-01,
-8.92706036567687988281e-01,
1.50336856022477149963e-02,
-2.36914679408073425293e-03,
5.12843020260334014893e-04,
1.05028653144836425781e+00,
2.95314967632293701172e-01,
4.39265593886375427246e-02,
7.80495931394398212433e-04,
-6.24506883323192596436e-02,
-8.01893696188926696777e-02,
4.99586276710033416748e-02,
1.32013499736785888672e-01,
6.95126280188560485840e-02,
4.78839967399835586548e-04,
5.90004883706569671631e-02,
1.55621543526649475098e-01,
-8.38925037533044815063e-03,
-1.68696381151676177979e-02,
-1.17245158180594444275e-02,
-2.99938507378101348877e-02,
3.91228318214416503906e-01,
7.54824206233024597168e-02,
-1.46027433220297098160e-03,
6.42256289720535278320e-02,
5.30885756015777587891e-02,
-1.72030776739120483398e-01,
1.00331179797649383545e-01,
-4.88005466759204864502e-02,
1.21156744658946990967e-01,
4.28889654576778411865e-02,
-1.47935654968023300171e-02,
3.39978784322738647461e-02,
6.08293414115905761719e-02,
-1.60850465297698974609e-01,
-8.02741125226020812988e-02,
1.25345811247825622559e-02,
-2.78634279966354370117e-02,
-8.23257938027381896973e-02,
-4.78216558694839477539e-02,
4.35096025466918945312e-02,
-6.89972750842571258545e-03,
-3.69866378605365753174e-02,
-5.33134154975414276123e-02,
3.02444826811552047729e-02,
-1.27341123297810554504e-02,
-3.06194964796304702759e-02,
-1.36147430166602134705e-02,
1.66564416140317916870e-02,
7.61247575283050537109e-02,
9.08715184777975082397e-03,
1.57907828688621520996e-01,
1.31289720535278320312e-01,
-5.44058494269847869873e-02,
1.46224066615104675293e-01,
1.16405628621578216553e-01,
-8.04950892925262451172e-02,
9.90791693329811096191e-02,
-1.17068495601415634155e-02,
3.90606299042701721191e-02,
7.39885047078132629395e-02,
1.13756254315376281738e-01,
1.08973616734147071838e-02,
2.76467334479093551636e-02,
2.97920834273099899292e-02,
-3.71239662170410156250e-01,
-8.66915166378021240234e-01,
-4.41100522875785827637e-02,
-1.90818042028695344925e-04,
-4.35167141258716583252e-02,
3.55199351906776428223e-02,
4.79408770799636840820e-01,
8.19792374968528747559e-02,
7.84788280725479125977e-02,
-1.14810923114418983459e-02,
-9.18707400560379028320e-02,
7.25759938359260559082e-02,
6.83552399277687072754e-02,
-1.17082022130489349365e-01,
-2.54057999700307846069e-02,
-4.27979324012994766235e-03,
2.99729965627193450928e-03,
7.88031369447708129883e-02,
7.88904540240764617920e-03,
-1.12500973045825958252e-01,
-3.69461476802825927734e-02,
1.59341067075729370117e-01,
3.33015918731689453125e-01,
-6.35739564895629882812e-02,
1.66672721505165100098e-01,
3.52402739226818084717e-02,
-1.45742273889482021332e-03,
-1.83012075722217559814e-02,
-5.21427311468869447708e-04,
-5.74851734563708305359e-03,
1.07986688613891601562e-01,
-3.48040908575057983398e-02,
-1.09335863962769508362e-02,
1.39255195856094360352e-01,
3.28028462827205657959e-02,
-9.65739861130714416504e-02,
-3.16411326639354228973e-03,
-5.70991486310958862305e-02,
4.17098551988601684570e-02,
-5.80277144908905029297e-01,
6.79759979248046875000e-02,
3.03806159645318984985e-02,
8.61815549433231353760e-03,
-7.03140050172805786133e-02,
-3.55355530977249145508e-01,
-8.43318402767181396484e-02,
-3.40104103088378906250e-03,
1.37466847896575927734e-01,
4.12344224750995635986e-02,
3.93653541803359985352e-01,
2.81590372323989868164e-02,
2.16560885310173034668e-02,
-3.40957427024841308594e+00,
-8.87866094708442687988e-02,
3.70102841407060623169e-03,
-2.93905347585678100586e-01,
-1.36877293698489665985e-03,
-1.09376320615410804749e-02,
-1.09863784164190292358e-02,
-3.80187528207898139954e-03,
-5.29257394373416900635e-03,
8.58894363045692443848e-02,
1.13009476661682128906e+00,
8.27018544077873229980e-02,
-1.71295535564422607422e+00,
-1.53801422566175460815e-02,
-1.98875945061445236206e-02,
5.49225151538848876953e-01,
4.37816744670271873474e-03,
-2.39379741251468658447e-02,
3.54615263640880584717e-02,
-2.50572971999645233154e-02,
3.34887713193893432617e-01,
-4.83129471540451049805e-02,
-2.59662363678216934204e-02,
2.02434640377759933472e-02,
2.88279131054878234863e-02,
5.91703131794929504395e-02,
2.72348504513502120972e-02,
1.46765187382698059082e-02,
-1.58036183565855026245e-02,
-1.99774024076759815216e-03,
2.99030710011720657349e-02,
1.95882961153984069824e-01,
9.70298610627651214600e-03,
1.11666011810302734375e+00,
1.34406769648194313049e-02,
-1.78645271807909011841e-03,
-3.74259263277053833008e-01,
1.43415657803416252136e-02,
3.26154455542564392090e-02,
2.44431700557470321655e-02,
4.84340311959385871887e-03,
-3.84975783526897430420e-03,
-5.93202635645866394043e-02,
-4.04178291559219360352e-01,
-7.00754821300506591797e-02,
1.78163602948188781738e-01,
-8.86672269552946090698e-03,
-1.29428178071975708008e-01,
-3.96419875323772430420e-02,
2.21436731517314910889e-02,
8.54984149336814880371e-02,
-3.49224805831909179688e-02,
1.97025481611490249634e-02,
1.17119058966636657715e-01,
-1.48186460137367248535e-01,
6.12762942910194396973e-03,
-1.21386246755719184875e-02,
-4.06329371035099029541e-02,
1.32368072867393493652e-01,
1.80274005979299545288e-02,
-8.48374366760253906250e-02,
4.46303151547908782959e-02,
5.18129579722881317139e-03,
6.75223469734191894531e-02,
-1.57644271850585937500e-01,
-9.78973321616649627686e-03,
-3.25060307979583740234e-01,
-5.86066544055938720703e-02,
-7.16060213744640350342e-03,
9.13590192794799804688e-03,
5.80449104309082031250e-02,
-1.93688329309225082397e-02,
-4.95200231671333312988e-02,
-6.38142228126525878906e-03,
-5.27635812759399414062e-02,
-4.41945493221282958984e-02,
-8.65553468465805053711e-02,
-2.78397202491760253906e-02,
-9.61597934365272521973e-02,
-8.57213418930768966675e-03,
6.12551979720592498779e-02,
3.08717429637908935547e-01,
-5.42516028508543968201e-03,
6.11630687490105628967e-03,
1.21437222696840763092e-03,
5.60090923681855201721e-03,
-1.25128120183944702148e-01,
1.57569497823715209961e-01,
-8.93832743167877197266e-02,
1.78919918835163116455e-02,
-9.10114403814077377319e-03,
-1.52455288916826248169e-02,
-7.14731588959693908691e-02,
7.20862373709678649902e-02,
8.16155374050140380859e-02,
-7.53905717283487319946e-03,
1.25588588416576385498e-02,
2.16834060847759246826e-02,
2.54147523082792758942e-03,
-1.07336893677711486816e-01,
3.57126072049140930176e-02,
1.06351990252733230591e-02,
-1.49832278490066528320e-01,
1.26512989401817321777e-01,
4.36209477484226226807e-02,
1.02272756397724151611e-01,
-2.16984860599040985107e-02,
7.39713758230209350586e-02,
-3.72550562024116516113e-02,
6.07514753937721252441e-02,
-1.84316448867321014404e-02,
-1.64909809827804565430e-02,
2.49337460845708847046e-02,
-1.27543687820434570312e-01,
-1.68102711439132690430e-01,
3.93833816051483154297e-02,
6.88447430729866027832e-02,
2.38332264125347137451e-02,
-1.97341591119766235352e-02,
2.82393321394920349121e-02,
-1.69526576995849609375e-01,
6.02359883487224578857e-02,
-1.05370059609413146973e-02,
-4.61050234735012054443e-02,
2.17996668070554733276e-02,
3.60533222556114196777e-02,
-1.75900626927614212036e-02,
6.37650713324546813965e-02,
-2.98997061327099800110e-03,
-4.56903968006372451782e-03,
-9.40971896052360534668e-02,
-3.24138090945780277252e-03,
9.86506044864654541016e-02,
-1.27369174733757972717e-02,
3.33653055131435394287e-02,
8.56694579124450683594e-02,
-8.71208868920803070068e-03,
-1.59291289746761322021e-02,
-6.26050233840942382812e-02,
8.16920623183250427246e-02,
-7.65826925635337829590e-02,
1.56807359308004379272e-02,
-7.62232020497322082520e-02,
-9.72994714975357055664e-02,
9.12889558821916580200e-03,
-5.20312506705522537231e-03,
7.66076818108558654785e-02,
8.57569128274917602539e-02,
-1.57092288136482238770e-02,
-9.04658362269401550293e-02,
2.49076150357723236084e-02,
-2.06983182579278945923e-02,
-1.29736825823783874512e-01,
-2.05984674394130706787e-02,
3.37795028463006019592e-03,
1.22332554310560226440e-02,
-5.99422231316566467285e-02,
9.92768257856369018555e-03,
-8.76555591821670532227e-03,
-3.31412032246589660645e-02,
6.72773420810699462891e-02,
-1.72853260301053524017e-03,
2.42278408259153366089e-02,
1.64108406752347946167e-02,
-2.68727750517427921295e-03,
9.25433710217475891113e-02,
-2.69207581877708435059e-02,
-1.75155065953731536865e-02,
2.41674892604351043701e-02,
2.74369213730096817017e-02,
-7.05001428723335266113e-02,
6.86486810445785522461e-02,
4.16286615654826164246e-03,
-8.35890918970108032227e-02,
9.31626558303833007812e-02,
-4.96161263436079025269e-03,
-6.26936703920364379883e-02,
6.03279210627079010010e-02,
3.75893851742148399353e-03,
-5.47361671924591064453e-02,
-7.07383230328559875488e-02,
-8.60337838530540466309e-02,
3.32892127335071563721e-02,
1.72094330191612243652e-02,
-1.22985402122139930725e-02,
-9.65287070721387863159e-03,
5.62933906912803649902e-02,
-2.51397639513015747070e-02,
1.41498921439051628113e-02,
-1.23328734189271926880e-02,
4.09929044544696807861e-02,
-1.37010896578431129456e-02,
2.90825851261615753174e-02,
-2.37358380109071731567e-02,
1.50632136501371860504e-03,
-4.44408915936946868896e-02,
6.39446973800659179688e-02,
3.00950719974935054779e-03,
1.60037621855735778809e-01,
-1.08270458877086639404e-02,
-1.44860036671161651611e-02,
-2.71303318440914154053e-02,
4.13596369326114654541e-02,
-1.96351110935211181641e-02,
-3.83221022784709930420e-02,
-2.15396564453840255737e-03,
8.91494192183017730713e-03,
-4.19492535293102264404e-02,
8.03694650530815124512e-02,
2.69624721258878707886e-02,
3.24539287248626351357e-05,
1.77686114329844713211e-03,
-1.02911695837974548340e-01,
1.52007982134819030762e-01,
-4.27396073937416076660e-02,
-3.37128378450870513916e-02,
1.94804947823286056519e-02,
-1.60841327160596847534e-02,
-1.54382246546447277069e-03,
5.00604324042797088623e-03,
-2.64471843838691711426e-02,
2.38388442085124552250e-04,
-1.99923589825630187988e-02,
-1.96624323725700378418e-02,
-1.75347886979579925537e-02,
1.52692617848515510559e-02,
1.20981305837631225586e-01,
-2.94103659689426422119e-03,
1.43478736281394958496e-02,
7.61636346578598022461e-02,
-2.10803677327930927277e-03,
-2.97360926866531372070e-01,
7.72644057869911193848e-02,
-2.84591689705848693848e-02,
1.52198046445846557617e-01,
2.51529309898614883423e-02,
1.41439074650406837463e-02,
6.70440793037414550781e-02,
3.68647202849388122559e-02,
5.39569742977619171143e-02,
6.69247880578041076660e-02,
7.16745853424072265625e-02,
3.57380956411361694336e-02,
1.22411780059337615967e-01,
-5.84587175399065017700e-03,
-4.06822897493839263916e-02,
-5.36001920700073242188e-01,
6.76074670627713203430e-03,
-7.25474534556269645691e-03,
-2.05030455254018306732e-03,
5.53197739645838737488e-03,
5.81862553954124450684e-02,
3.39914113283157348633e-03,
9.53740030527114868164e-02,
-1.01531669497489929199e-02,
3.45818549394607543945e-02,
3.82151901721954345703e-02,
-3.03457994014024734497e-02,
-7.34769627451896667480e-02,
7.94772878289222717285e-02,
4.27920045331120491028e-03,
-5.10748587548732757568e-02,
6.69430941343307495117e-02,
7.35313212499022483826e-03,
-7.20736458897590637207e-02,
6.51894509792327880859e-02,
-2.83788554370403289795e-02,
2.41398856043815612793e-01,
9.76074207574129104614e-03,
2.23194137215614318848e-02,
2.42913402616977691650e-02,
-1.59910358488559722900e-02,
1.07965946197509765625e-01,
-1.31553843617439270020e-01,
-5.76091967523097991943e-02,
-1.44069269299507141113e-01,
-4.86267954111099243164e-02,
1.26454941928386688232e-02,
2.75345370173454284668e-02,
-2.34131321310997009277e-01,
-3.67221683263778686523e-02,
2.07723071798682212830e-03,
-2.66092014499008655548e-04,
1.66196264326572418213e-02,
-7.32718780636787414551e-02,
2.12012343108654022217e-02,
5.59879578649997711182e-02,
-2.08703731186687946320e-03,
1.43783036619424819946e-02,
-3.75220319256186485291e-03,
2.66649834811687469482e-02,
-9.63056460022926330566e-02,
3.68634285405278205872e-03,
-1.85794662684202194214e-03,
-9.10266786813735961914e-02,
6.22889995574951171875e-02,
2.86861846689134836197e-04,
-5.82707254216074943542e-03,
7.16759860515594482422e-02,
-3.50223220884799957275e-02,
1.44156500697135925293e-01,
-1.16468099877238273621e-02,
1.73563305288553237915e-02,
5.09223341941833496094e-02,
9.96447447687387466431e-03,
-7.92729407548904418945e-02,
9.13421660661697387695e-02,
6.35971408337354660034e-03,
-1.03464111685752868652e-01,
9.91895124316215515137e-02,
-5.98590541630983352661e-03,
6.50850981473922729492e-02,
-3.75897854566574096680e-01,
-5.73469977825880050659e-03,
-1.43996020779013633728e-02,
1.28996791318058967590e-03,
5.41892135515809059143e-04,
-3.57454232871532440186e-02,
-1.02758914232254028320e-01,
-3.09466719627380371094e-02,
8.55551334097981452942e-04,
3.17796543240547180176e-02,
2.11689285933971405029e-02,
8.78230258822441101074e-02,
-2.22005005925893783569e-02,
6.44473582506179809570e-02,
-5.03621995449066162109e-04,
-2.08486914634704589844e-01,
-3.14265266060829162598e-02,
-9.62324813008308410645e-03,
-4.88784424960613250732e-02,
1.27815261483192443848e-01,
-2.57770903408527374268e-02,
-6.25489354133605957031e-01,
1.03115484118461608887e-01,
2.46525146067142486572e-02,
-2.85861864686012268066e-02,
-2.49354653060436248779e-02,
-1.48161172866821289062e-01,
-3.61938849091529846191e-02,
1.40557773411273956299e-02,
1.82307194918394088745e-02,
-2.31521110981702804565e-02,
-5.40669949259608983994e-04,
3.42425294220447540283e-02,
-6.22060179710388183594e-01,
-2.86274356767535209656e-03,
-4.36125658452510833740e-02,
-6.27731671556830406189e-03,
-1.28944860771298408508e-02,
7.38165900111198425293e-02,
1.02127373218536376953e-01,
1.03651724755764007568e-01,
-1.00546646863222122192e-02,
1.47117963060736656189e-02,
4.94034774601459503174e-02,
1.42335537821054458618e-02,
-3.49826924502849578857e-02,
1.31426192820072174072e-02,
-5.84571389481425285339e-05,
-3.36056910455226898193e-02,
5.49059547483921051025e-02,
-3.10953008010983467102e-03,
-4.58147078752517700195e-02,
-7.98887759447097778320e-03,
3.24960872530937194824e-02,
6.54958635568618774414e-02,
3.27481925487518310547e-02,
-2.10264697670936584473e-02,
-2.80929915606975555420e-02,
-2.64683719724416732788e-02,
-3.22443813085556030273e-01,
-1.12671785056591033936e-01,
2.87164777517318725586e-01,
-5.79628869891166687012e-02,
-6.23956806957721710205e-02,
4.47973189875483512878e-03,
-2.51609692350029945374e-03,
1.25336587429046630859e-01,
-9.43280570209026336670e-03,
-2.89328824728727340698e-02,
4.72572743892669677734e-02,
-3.73694188892841339111e-02,
-8.35269466042518615723e-02,
-1.57840475440025329590e-02,
-2.03245435841381549835e-03,
7.39375781267881393433e-03,
1.23716399073600769043e-01,
-2.20323763787746429443e-02,
-1.58932209014892578125e-01,
1.75486784428358078003e-02,
7.31656253337860107422e-02,
-1.40360556542873382568e-02,
-1.61069318652153015137e-01,
-8.01819562911987304688e-03,
2.74958531372249126434e-03,
-7.34016716480255126953e-01,
2.32644721865653991699e-01,
-1.20188236236572265625e-01,
9.66988384723663330078e-01,
3.06755285710096359253e-02,
9.08164158463478088379e-02,
1.57449115067720413208e-02,
-5.41894063353538513184e-02,
3.27837429940700531006e-02,
-4.22423817217350006104e-02,
5.02590052783489227295e-02,
-3.85759882628917694092e-02,
2.24046736955642700195e-01,
-7.03847734257578849792e-03,
-1.07357120141386985779e-02,
-8.64728033542633056641e-01,
4.80863405391573905945e-03,
9.32237058877944946289e-02,
4.90408390760421752930e-02,
7.96349160373210906982e-03,
2.48127400875091552734e-01,
5.22719733417034149170e-02,
1.20280250906944274902e-01,
-3.71954329311847686768e-02,
6.02896977216005325317e-03,
-5.09209325537085533142e-03,
-8.43731462955474853516e-02,
2.51648612320423126221e-02,
1.61005742847919464111e-02,
-9.23468731343746185303e-03,
-2.57224217057228088379e-03,
1.30804674699902534485e-02,
-1.07375718653202056885e-02,
-3.31258833408355712891e-01,
-3.27834412455558776855e-02,
2.22725747153162956238e-03,
1.16973660886287689209e-01,
9.44314301013946533203e-02,
-1.93829387426376342773e-02,
2.07738485187292098999e-02,
-2.24231258034706115723e-02,
-1.15033209323883056641e-01,
1.19160607457160949707e-01,
7.35948905348777770996e-02,
-3.58181297779083251953e-02,
-7.09669142961502075195e-02,
1.03708181995898485184e-04,
-6.33721649646759033203e-02,
3.45514953136444091797e-01,
2.64224186539649963379e-02,
3.16539034247398376465e-02,
8.23279395699501037598e-02,
-5.75855486094951629639e-02,
9.39999818801879882812e-02,
1.45731493830680847168e-01,
-1.96122080087661743164e-02,
4.80563053861260414124e-03,
-1.78436413407325744629e-02,
-5.02553209662437438965e-03,
6.84434222057461738586e-03,
-4.94488216936588287354e-02,
5.27783902361989021301e-03,
3.27571667730808258057e-03,
-3.29441316425800323486e-02,
-7.79998973011970520020e-02,
-8.09653569012880325317e-03,
1.26752108335494995117e-01,
-7.38964527845382690430e-02,
-3.21548292413353919983e-03,
4.34672199189662933350e-02,
5.73591329157352447510e-02,
-2.04143691807985305786e-02,
-5.33199831843376159668e-02,
2.23426520824432373047e-03,
1.74734238535165786743e-02,
2.03829389065504074097e-02,
-8.27991496771574020386e-03,
3.09331566095352172852e-02,
-6.04008324444293975830e-02,
4.31068567559123039246e-03,
8.71526971459388732910e-02,
4.05145704746246337891e-01,
-6.98409508913755416870e-04,
4.72572781145572662354e-02,
-2.18127556145191192627e-02,
2.03474797308444976807e-02,
-2.67234165221452713013e-02,
-1.03015795350074768066e-01,
-1.00366801023483276367e-01,
9.75920166820287704468e-03,
-1.86331570148468017578e-02,
1.99000053107738494873e-02,
2.56114602088928222656e-02,
-2.98708565533161163330e-02,
4.60066534578800201416e-02,
4.02192631736397743225e-03,
7.35544860363006591797e-02,
-4.29286248981952667236e-02,
-1.05161983519792556763e-02,
-4.31028082966804504395e-02,
-5.97694404423236846924e-02,
-8.28310661017894744873e-03,
-2.14776657521724700928e-02,
-7.50714018940925598145e-02,
-2.71555483341217041016e-02,
1.13184295594692230225e-01,
6.41950638964772224426e-03,
-4.13033701479434967041e-02,
-3.99899408221244812012e-02,
-3.29358763992786407471e-02,
2.79788672924041748047e-02,
1.04508362710475921631e-01,
2.47935624793171882629e-03,
9.47047322988510131836e-02,
2.37882927060127258301e-01,
7.01011251658201217651e-03,
-3.31316366791725158691e-02,
-2.52541853114962577820e-03,
-6.37244840618222951889e-04,
-2.30786390602588653564e-05,
-6.72993957996368408203e-02,
1.56019842252135276794e-02,
9.38559044152498245239e-03,
7.93195981532335281372e-03,
-2.30180975049734115601e-02,
1.44977280870079994202e-02,
1.49907525628805160522e-02,
3.32040600478649139404e-02,
9.31426533497869968414e-04,
1.24553956091403961182e-01,
-9.23772826790809631348e-02,
6.61462359130382537842e-03,
-1.25748082995414733887e-01,
-5.36781698465347290039e-02,
6.73077907413244247437e-03,
4.24834154546260833740e-02,
-1.44120812416076660156e-01,
-2.02105995267629623413e-02,
-6.24368786811828613281e-02,
6.43415143713355064392e-03,
1.88920032232999801636e-02,
6.25578779727220535278e-03,
-1.14052230492234230042e-02,
4.23167012631893157959e-02,
4.28863503038883209229e-02,
4.23178775236010551453e-04,
-7.17645362019538879395e-02,
2.34561383724212646484e-01,
2.06179879605770111084e-02,
-4.02724742889404296875e-03,
-1.29133993759751319885e-02,
8.81216209381818771362e-03,
4.97026145458221435547e-02,
-5.54216131567955017090e-02,
-3.98866496980190277100e-02,
4.10086009651422500610e-03,
2.71781608462333679199e-02,
-4.21853661537170410156e-02,
1.31737627089023590088e-02,
2.46568247675895690918e-02,
-4.88905049860477447510e-02,
-2.61713960207998752594e-03,
4.33385837823152542114e-04,
-2.14393287897109985352e-02,
-1.26639688387513160706e-02,
-8.97290632128715515137e-02,
4.47650486603379249573e-03,
4.32460801675915718079e-03,
1.26958051696419715881e-02,
1.07269540429115295410e-01,
5.68581968545913696289e-02,
-5.96266575157642364502e-02,
-5.31203579157590866089e-03,
-4.48828041553497314453e-02,
1.54529111459851264954e-02,
-2.12685406208038330078e-01,
9.82224345207214355469e-02,
2.56683379411697387695e-02,
-5.15273632481694221497e-03,
-8.73995851725339889526e-03,
-2.29538418352603912354e-04,
7.36900232732295989990e-03,
4.29401844739913940430e-02,
-7.24353594705462455750e-03,
6.06818776577711105347e-03,
2.41928994655609130859e-02,
2.77667529881000518799e-02,
1.01961195468902587891e-01,
-1.01263811811804771423e-02,
-4.47714962065219879150e-02,
1.64969321340322494507e-02,
3.39168414939194917679e-04,
-1.90889295190572738647e-02,
-5.40115013718605041504e-02,
-9.63494589086621999741e-04,
1.06194749474525451660e-01,
2.06291321665048599243e-02,
1.19288330897688865662e-02,
6.02702200412750244141e-02,
-6.66190907359123229980e-02,
2.57317684590816497803e-02,
9.03890356421470642090e-02,
-5.24607524275779724121e-02,
-3.06001361459493637085e-02,
-7.43075385689735412598e-02,
2.08662636578083038330e-02,
1.01362504065036773682e-01,
4.21700254082679748535e-02,
-1.08853506390005350113e-03,
-1.14842578768730163574e-01,
-1.62297576665878295898e-01,
4.01519006118178367615e-03,
-1.26189982984215021133e-03,
2.64869153499603271484e-01,
-2.72345151752233505249e-02,
1.43936031963676214218e-03,
-2.33116131275892257690e-02,
2.04600635915994644165e-02,
-6.40602856874465942383e-02,
-5.33204823732376098633e-02,
1.39516266062855720520e-02,
1.28032863140106201172e-02,
-2.73220613598823547363e-02,
-5.06291501224040985107e-02,
5.99501607939600944519e-03,
-5.53335584700107574463e-02,
5.91949932277202606201e-02,
8.09711753390729427338e-04,
8.83133038878440856934e-02,
5.44661805033683776855e-02,
1.06312548741698265076e-02,
5.54130524396896362305e-02,
-5.62821850180625915527e-02,
1.91697329282760620117e-02,
1.98150351643562316895e-02,
-9.50491242110729217529e-03,
-2.49091945588588714600e-02,
8.85306447744369506836e-02,
1.01217236369848251343e-02,
2.91681606322526931763e-02,
6.20133541524410247803e-02,
2.20763701945543289185e-02,
-8.61407443881034851074e-02,
-6.36023059487342834473e-02,
1.70473358593881130219e-03,
-4.51745353639125823975e-02,
1.65884181857109069824e-01,
-2.48129237443208694458e-02,
5.64841516315937042236e-02,
-3.85025069117546081543e-02,
3.13320718705654144287e-02,
-4.63922321796417236328e-02,
-9.09324269741773605347e-03,
-8.66433978080749511719e-02,
8.71191360056400299072e-03,
-3.91724035143852233887e-02,
-3.73083278536796569824e-02,
8.06229487061500549316e-02,
-5.10853342711925506592e-02,
-1.39569669961929321289e-01,
-2.47949804179370403290e-03,
-1.11966030672192573547e-02,
-9.42314714193344116211e-02,
-1.75678245723247528076e-02,
4.52378392219543457031e-02,
-7.96986222267150878906e-02,
2.27333642542362213135e-02,
1.31107717752456665039e-02,
6.88351020216941833496e-02,
-3.93136106431484222412e-02,
4.25893999636173248291e-03,
2.13179364800453186035e-03,
-2.01745405793190002441e-01,
1.94752469658851623535e-01,
7.47010111808776855469e-02,
1.47392183542251586914e-01,
-9.12859141826629638672e-02,
2.93161952868103981018e-03,
7.14695267379283905029e-03,
3.70701074600219726562e-01,
1.25818904489278793335e-02,
-1.33298203349113464355e-01,
1.29266623407602310181e-02,
-1.35248908773064613342e-02,
2.04702094197273254395e-02,
-5.16654327511787414551e-02,
3.16404923796653747559e-02,
1.36426109820604324341e-02,
1.70215182006359100342e-02,
-6.66374042630195617676e-02,
7.65182524919509887695e-02,
1.18911080062389373779e-01,
2.25533787161111831665e-02,
-4.10866981837898492813e-04,
1.05638965964317321777e-01,
1.05294726788997650146e-01,
-2.78281047940254211426e-03,
-1.70604795217514038086e-01,
1.63722001016139984131e-02,
-1.44983939826488494873e-02,
-7.92006030678749084473e-02,
-2.07355543971061706543e-02,
2.49925423413515090942e-02,
-2.64646187424659729004e-02,
-2.12300359271466732025e-03,
9.51995514333248138428e-03,
-3.56824621558189392090e-02,
-1.68487206101417541504e-02,
-2.58723832666873931885e-02,
1.47891134023666381836e-01,
-2.32449639588594436646e-03,
5.73108643293380737305e-02,
-2.00162917375564575195e-01,
3.31346644088625907898e-03,
-1.31783127784729003906e-01,
-1.72872431576251983643e-02,
-7.87744577974081039429e-03,
9.18648988008499145508e-02,
-7.46596604585647583008e-03,
5.94847165048122406006e-02,
-1.45950783044099807739e-02,
-2.92344205081462860107e-03,
1.08715564012527465820e-01,
-5.31462254002690315247e-04,
-3.02917156368494033813e-02,
1.43106579780578613281e-01,
1.00522628054022789001e-03,
-6.99881240725517272949e-02,
-4.47707548737525939941e-02,
1.09428670257329940796e-02,
1.46786957979202270508e-01,
4.59340699017047882080e-02,
-2.13189553469419479370e-02,
9.33030247688293457031e-02,
-2.11732804775238037109e-01,
-3.38431969285011291504e-02,
-1.69733446091413497925e-02,
1.26775978133082389832e-02,
-1.01742312312126159668e-01,
-7.60753825306892395020e-02,
-9.57636386156082153320e-02,
-5.00736199319362640381e-02,
-2.45542638003826141357e-02,
1.61749578546732664108e-03,
-5.51071017980575561523e-02,
-1.20356738567352294922e-01,
1.96715332567691802979e-02,
-1.02347761392593383789e-01,
6.74024820327758789062e-02,
-4.97235693037509918213e-02,
-2.38221064209938049316e-02,
-2.21946071833372116089e-02,
-8.36599990725517272949e-03,
1.27126276493072509766e-02,
2.12841350585222244263e-02,
6.71365782618522644043e-02,
-4.06977571547031402588e-02,
-5.16021810472011566162e-02,
2.31998916715383529663e-02,
-2.07219133153557777405e-03,
-1.56229481101036071777e-01,
2.10024826228618621826e-02,
-1.08633413910865783691e-02,
-4.28353017196059226990e-03,
6.44607469439506530762e-02,
-3.35661470890045166016e-02,
3.41666519641876220703e-01,
4.79931011795997619629e-02,
2.26300652138888835907e-03,
-1.50125160813331604004e-01,
-9.51648503541946411133e-03,
1.08964899554848670959e-02,
6.75929933786392211914e-02,
-2.10368502885103225708e-02,
4.54959385097026824951e-02,
-5.08229359984397888184e-02,
-1.71276996843516826630e-03,
6.68159052729606628418e-02,
-1.71444728970527648926e-01,
1.86595339328050613403e-02,
-8.82558822631835937500e-02,
6.71439990401268005371e-02,
-3.28073687851428985596e-02,
2.27377209812402725220e-02,
3.91681715846061706543e-02,
-8.79276096820831298828e-02,
1.52518250979483127594e-03,
-7.43345497176051139832e-03,
1.86665952205657958984e-02,
3.27570661902427673340e-02,
-9.85284745693206787109e-02,
-1.12640328705310821533e-01,
-2.56270309910178184509e-03,
-4.10272274166345596313e-03,
-1.18233069777488708496e-01,
2.79637752100825309753e-03,
6.41729086637496948242e-02,
-4.70905005931854248047e-02,
-3.67831741459667682648e-03,
1.90277576446533203125e-01,
-3.58228310942649841309e-02,
-2.58163437247276306152e-02,
-1.85623198747634887695e-01,
-2.31531308963894844055e-03,
-8.89047607779502868652e-02,
7.55627229809761047363e-02,
2.21627019345760345459e-02,
-4.04261983931064605713e-03,
-5.12138977646827697754e-02,
4.99355141073465347290e-03,
-1.28370687365531921387e-01,
3.34481000900268554688e-01,
1.15773202851414680481e-02,
-8.09548869729042053223e-02,
1.29907708615064620972e-02,
5.42616052553057670593e-03,
3.66846472024917602539e-02,
-3.15792746841907501221e-02,
-4.19990606606006622314e-02,
1.48110697045922279358e-02,
5.67872934043407440186e-02,
-7.13809356093406677246e-02,
-4.54449502285569906235e-04,
9.70255956053733825684e-02,
-5.25408014655113220215e-02,
-3.04725673049688339233e-03,
-1.04706704616546630859e-01,
8.67969170212745666504e-02,
6.06106314808130264282e-03,
-1.24629372730851173401e-02,
9.83093827962875366211e-02,
-4.23171296715736389160e-02,
2.44616478681564331055e-01,
8.63412469625473022461e-02,
7.14931413531303405762e-02,
7.04166516661643981934e-02,
-5.77458925545215606689e-03,
1.92970484495162963867e-02,
7.03640689607709646225e-04,
6.98363110423088073730e-02,
-8.04171524941921234131e-03,
1.00835114717483520508e-01,
-4.16829017922282218933e-03,
2.29571247473359107971e-03,
-3.69474112987518310547e-01,
-2.27769315242767333984e-02,
-2.68841870129108428955e-02,
-6.96426443755626678467e-03,
-2.08658212795853614807e-03,
8.71655941009521484375e-02,
-1.18779264390468597412e-01,
-7.21994116902351379395e-02,
-2.73037161678075790405e-02,
1.06052551418542861938e-02,
1.59850493073463439941e-02,
-1.48050915449857711792e-02,
-1.16108506917953491211e-02,
4.19134013354778289795e-02,
-7.37747177481651306152e-06,
-5.99237112328410148621e-03,
1.08508326113224029541e-01,
-4.20488696545362472534e-03,
-6.05255961418151855469e-02,
-1.13684833049774169922e-02,
-9.29934997111558914185e-03,
1.03832773864269256592e-01,
7.72566646337509155273e-02,
1.82530134916305541992e-02,
5.25643564760684967041e-02,
-6.11899886280298233032e-03,
5.35093806684017181396e-03,
-1.24501965939998626709e-01,
8.89466926455497741699e-02,
-1.40960682183504104614e-02,
3.72100360691547393799e-02,
-1.57105294056236743927e-03,
-1.89053788781166076660e-02,
1.05347469449043273926e-01,
-4.88999439403414726257e-03,
-3.44677381217479705811e-02,
1.55632188543677330017e-02,
-7.30688078328967094421e-03,
-1.67664717882871627808e-02,
3.38783189654350280762e-02,
-1.23212132602930068970e-02,
-2.15408531948924064636e-03,
4.06071282923221588135e-02,
5.16212219372391700745e-03,
-1.71082280576229095459e-02,
-7.45626389980316162109e-02,
6.32949247956275939941e-02,
-2.76937568560242652893e-03,
-5.87796047329902648926e-02,
1.44920973107218742371e-02,
-4.84166759997606277466e-03,
-2.24714547395706176758e-01,
9.00079533457756042480e-02,
-4.06633615493774414062e-02,
4.98798377811908721924e-02,
4.70566116273403167725e-02,
3.92452701926231384277e-02,
-9.19199213385581970215e-02,
-1.61039009690284729004e-02,
2.97796241939067840576e-02,
4.55040298402309417725e-02,
4.63083051145076751709e-02,
-5.45776784420013427734e-02,
1.34493872523307800293e-01,
-2.87002278491854667664e-03,
-1.09492037445306777954e-02,
-4.50353562831878662109e-01,
1.94881251081824302673e-03,
1.83392073959112167358e-02,
6.93085929378867149353e-03,
7.26006925106048583984e-03,
5.32368198037147521973e-02,
-6.63047656416893005371e-04,
-2.23071239888668060303e-02,
-6.89072581008076667786e-03,
2.08943169564008712769e-02,
2.64960294589400291443e-03,
6.80611580610275268555e-02,
-2.25514657795429229736e-02,
-9.26344320178031921387e-02,
3.35459643974900245667e-03,
-1.96814034134149551392e-02,
1.40824973583221435547e-01,
6.18109479546546936035e-03,
2.39344507455825805664e-01,
-2.77435854077339172363e-02,
-7.63609120622277259827e-03,
-4.52686622738838195801e-02,
-3.09726316481828689575e-02,
1.26878209412097930908e-02,
2.86553357727825641632e-03,
-5.71048725396394729614e-03,
5.24114891886711120605e-02,
-3.35393622517585754395e-02,
-1.19458045810461044312e-02,
3.01076434552669525146e-02,
4.77726571261882781982e-02,
1.36183528229594230652e-03,
-5.42316287755966186523e-02,
1.40057355165481567383e-01,
3.32265812903642654419e-03,
-1.54553890228271484375e-01,
-1.36094242334365844727e-02,
4.91148373112082481384e-03,
1.86403430998325347900e-02,
-4.16133105754852294922e-02,
-1.24684683978557586670e-01,
-1.43265677616000175476e-03,
-2.04156562685966491699e-02,
7.92679085861891508102e-04,
5.65685518085956573486e-02,
4.55579943954944610596e-02,
-1.86578202992677688599e-02,
1.52488937601447105408e-03,
1.88070815056562423706e-02,
4.82207275927066802979e-02,
2.48396745882928371429e-03,
1.35305419564247131348e-01,
-7.55007266998291015625e-02,
2.81477831304073333740e-02,
-1.08380936086177825928e-01,
-4.29539009928703308105e-03,
-2.78174262493848800659e-02,
-7.84029662609100341797e-02,
-1.14489602856338024139e-03,
-6.92701786756515502930e-02,
-2.21829172223806381226e-02,
-3.09625212103128433228e-02,
5.76662756502628326416e-02,
-6.85847178101539611816e-02,
1.84179667849093675613e-03,
-4.82676401734352111816e-02,
3.60353320837020874023e-01,
1.11292384099215269089e-03,
-6.19918331503868103027e-02,
-1.10523551702499389648e-02,
-3.65596474148333072662e-03,
-7.76012800633907318115e-03,
7.22723826766014099121e-02,
-2.70388703793287277222e-02,
4.55914810299873352051e-03,
4.66787815093994140625e-02,
-1.60561259835958480835e-02,
1.71661172062158584595e-02,
4.94463816285133361816e-02,
-1.29826813936233520508e-01,
-1.23015593271702528000e-03,
1.25412076711654663086e-01,
1.13012000918388366699e-01,
-6.38917973265051841736e-03,
1.26489713788032531738e-01,
-2.32051331549882888794e-02,
-1.91817674785852432251e-02,
8.96058753132820129395e-02,
2.48206984251737594604e-02,
8.30407962203025817871e-02,
3.14981713891029357910e-02,
-1.96360982954502105713e-02,
8.59583690762519836426e-02,
-9.93410274386405944824e-02,
-3.43623943626880645752e-02,
-2.20765173435211181641e-02,
5.39933554828166961670e-02,
-5.66939916461706161499e-03,
1.03892326354980468750e-01,
1.39066755771636962891e-01,
-9.32934321463108062744e-03,
-6.75961300730705261230e-02,
-1.29533726722002029419e-02,
5.31040411442518234253e-03,
6.24794289469718933105e-02,
-5.56137226521968841553e-02,
4.59541287273168563843e-03,
-1.41380056738853454590e-02,
-1.63893140852451324463e-02,
5.96033921465277671814e-03,
-3.05081065744161605835e-02,
4.88489270210266113281e-02,
1.07223885133862495422e-02,
-9.85450460575520992279e-04,
-4.45432141423225402832e-02,
